{"learner":{"attributes":{"scikit_learn":"{\"_estimator_type\": \"regressor\"}"},"feature_names":["GP","PA","AB","AVG","H","1B","2B","3B","HR","RBI","R","BB","SO","K-L","HBP","SAC","SF","ROE","FC","SB","SB%","CS","PIK","QAB","QAB%","PA/BB","BB/K","C%","HHB","LD%","FB%","GB%","BABIP","BA/RISP","LOB","2OUTRBI","XBH","TB","PS","PS/PA","2S+3","2S+3%","6","6%","AB/HR","GIDP","GITP","CI"],"feature_types":["int","int","int","float","int","int","int","int","int","int","int","int","int","int","int","int","int","int","int","int","float","int","int","int","float","float","float","float","int","float","float","float","float","float","int","int","int","int","int","float","int","float","int","float","float","int","int","int"],"gradient_booster":{"model":{"gbtree_model_param":{"num_parallel_tree":"1","num_trees":"100"},"iteration_indptr":[0,1,2,3,4,5,6,7,8,9,10,11,12,13,14,15,16,17,18,19,20,21,22,23,24,25,26,27,28,29,30,31,32,33,34,35,36,37,38,39,40,41,42,43,44,45,46,47,48,49,50,51,52,53,54,55,56,57,58,59,60,61,62,63,64,65,66,67,68,69,70,71,72,73,74,75,76,77,78,79,80,81,82,83,84,85,86,87,88,89,90,91,92,93,94,95,96,97,98,99,100],"tree_info":[0,0,0,0,0,0,0,0,0,0,0,0,0,0,0,0,0,0,0,0,0,0,0,0,0,0,0,0,0,0,0,0,0,0,0,0,0,0,0,0,0,0,0,0,0,0,0,0,0,0,0,0,0,0,0,0,0,0,0,0,0,0,0,0,0,0,0,0,0,0,0,0,0,0,0,0,0,0,0,0,0,0,0,0,0,0,0,0,0,0,0,0,0,0,0,0,0,0,0,0],"trees":[{"base_weights":[-1.5610741E-8,-2.5889584E-1,3.10675E-1,-3.296667E-1,-3.4937516E-2,5.1375004E-3,3.3377778E-2,-3.5521876E-2,-6.262502E-3,-4.662502E-3,-1.550001E-3],"categories":[],"categories_nodes":[],"categories_segments":[],"categories_sizes":[],"default_left":[0,0,0,0,0,0,0,0,0,0,0],"id":0,"left_children":[1,3,5,7,9,-1,-1,-1,-1,-1,-1],"loss_changes":[1.7695143E0,1.7867881E-1,4.275763E-2,3.9165676E-2,1.8601539E-4,0E0,0E0,0E0,0E0,0E0,0E0],"parents":[2147483647,0,0,1,1,2,2,3,3,4,4],"right_children":[2,4,6,8,10,-1,-1,-1,-1,-1,-1],"split_conditions":[3.13E-1,2.22E-1,4.55E-1,2.5E0,9E0,5.1375004E-3,3.3377778E-2,-3.5521876E-2,-6.262502E-3,-4.662502E-3,-1.550001E-3],"split_indices":[3,3,3,26,2,0,0,0,0,0,0],"split_type":[0,0,0,0,0,0,0,0,0,0,0],"sum_hessian":[2E1,1.1E1,9E0,8E0,3E0,1E0,8E0,7E0,1E0,1E0,2E0],"tree_param":{"num_deleted":"0","num_feature":"48","num_nodes":"11","size_leaf_vector":"1"}},{"base_weights":[-4.5151796E-4,-2.3700601E-1,2.8345904E-1,-3.0134276E-1,-3.2996878E-2,4.8806253E-3,3.0410865E-2,-3.2413717E-2,-5.949378E-3,-4.429376E-3,-1.4466663E-3],"categories":[],"categories_nodes":[],"categories_segments":[],"categories_sizes":[],"default_left":[0,0,0,0,0,0,0,0,0,0,0],"id":1,"left_children":[1,3,5,7,9,-1,-1,-1,-1,-1,-1],"loss_changes":[1.4775482E0,1.4756E-1,3.361237E-2,3.0331016E-2,1.9655144E-4,0E0,0E0,0E0,0E0,0E0,0E0],"parents":[2147483647,0,0,1,1,2,2,3,3,4,4],"right_children":[2,4,6,8,10,-1,-1,-1,-1,-1,-1],"split_conditions":[3.13E-1,2.22E-1,4.55E-1,2.5E0,9E0,4.8806253E-3,3.0410865E-2,-3.2413717E-2,-5.949378E-3,-4.429376E-3,-1.4466663E-3],"split_indices":[3,3,3,26,2,0,0,0,0,0,0],"split_type":[0,0,0,0,0,0,0,0,0,0,0],"sum_hessian":[2E1,1.1E1,9E0,8E0,3E0,1E0,8E0,7E0,1E0,1E0,2E0],"tree_param":{"num_deleted":"0","num_feature":"48","num_nodes":"11","size_leaf_vector":"1"}},{"base_weights":[-8.324484E-4,-2.16992E-1,2.5864226E-1,-2.7547103E-1,-3.1166196E-2,4.6365946E-3,2.7707675E-2,-2.9577514E-2,-5.6519094E-3,-4.2079063E-3,-1.350222E-3],"categories":[],"categories_nodes":[],"categories_segments":[],"categories_sizes":[],"default_left":[0,0,0,0,0,0,0,0,0,0,0],"id":2,"left_children":[1,3,5,7,9,-1,-1,-1,-1,-1,-1],"loss_changes":[1.2339699E0,1.2181759E-1,2.6285112E-2,2.3293674E-2,2.0289724E-4,0E0,0E0,0E0,0E0,0E0,0E0],"parents":[2147483647,0,0,1,1,2,2,3,3,4,4],"right_children":[2,4,6,8,10,-1,-1,-1,-1,-1,-1],"split_conditions":[3.13E-1,2.22E-1,4.55E-1,2.5E0,9E0,4.6365946E-3,2.7707675E-2,-2.9577514E-2,-5.6519094E-3,-4.2079063E-3,-1.350222E-3],"split_indices":[3,3,3,26,2,0,0,0,0,0,0],"split_type":[0,0,0,0,0,0,0,0,0,0,0],"sum_hessian":[2E1,1.1E1,9E0,8E0,3E0,1E0,8E0,7E0,1E0,1E0,2E0],"tree_param":{"num_deleted":"0","num_feature":"48","num_nodes":"11","size_leaf_vector":"1"}},{"base_weights":[-1.1512793E-3,-1.9869179E-1,2.3601244E-1,-2.9478079E-2,-8.794523E-2,4.4047656E-3,2.524477E-2,-1.1556208E-2,-1.2602072E-3],"categories":[],"categories_nodes":[],"categories_segments":[],"categories_sizes":[],"default_left":[0,0,0,0,0,0,0,0,0],"id":3,"left_children":[1,3,5,-1,7,-1,-1,-1,-1],"loss_changes":[1.030732E0,1.017738E-1,2.0430148E-2,0E0,1.3108864E-2,0E0,0E0,0E0,0E0],"parents":[2147483647,0,0,1,1,2,2,4,4],"right_children":[2,4,6,-1,8,-1,-1,-1,-1],"split_conditions":[3.13E-1,2E-1,4.55E-1,-2.9478079E-2,1E0,4.4047656E-3,2.524477E-2,-1.1556208E-2,-1.2602072E-3],"split_indices":[3,3,3,0,6,0,0,0,0],"split_type":[0,0,0,0,0,0,0,0,0],"sum_hessian":[2E1,1.1E1,9E0,5E0,6E0,1E0,8E0,4E0,2E0],"tree_param":{"num_deleted":"0","num_feature":"48","num_nodes":"9","size_leaf_vector":"1"}},{"base_weights":[-1.6382947E-3,-1.8234715E-1,2.1537615E-1,-2.3160955E-1,-2.5919944E-2,7.389981E-3,2.4150778E-2,-2.4858197E-2,-4.7915042E-3,-3.4197003E-3,-1.1761923E-3],"categories":[],"categories_nodes":[],"categories_segments":[],"categories_sizes":[],"default_left":[0,0,1,0,0,0,0,0,0,0,0],"id":4,"left_children":[1,3,5,7,9,-1,-1,-1,-1,-1,-1],"loss_changes":[8.6281824E-1,8.64684E-2,1.912266E-2,1.6148895E-2,6.6524604E-5,0E0,0E0,0E0,0E0,0E0,0E0],"parents":[2147483647,0,0,1,1,2,2,3,3,4,4],"right_children":[2,4,6,8,10,-1,-1,-1,-1,-1,-1],"split_conditions":[3.13E-1,2.22E-1,8.571E1,2.5E0,9E0,7.389981E-3,2.4150778E-2,-2.4858197E-2,-4.7915042E-3,-3.4197003E-3,-1.1761923E-3],"split_indices":[3,3,20,26,2,0,0,0,0,0,0],"split_type":[0,0,0,0,0,0,0,0,0,0,0],"sum_hessian":[2E1,1.1E1,9E0,8E0,3E0,2E0,7E0,7E0,1E0,1E0,2E0],"tree_param":{"num_deleted":"0","num_feature":"48","num_nodes":"11","size_leaf_vector":"1"}},{"base_weights":[-1.6032783E-3,-1.6696624E-1,1.969926E-1,-2.4950057E-2,-7.237021E-2,1.1691564E-2,2.5368646E-2,-9.473161E-3,-1.0977805E-3],"categories":[],"categories_nodes":[],"categories_segments":[],"categories_sizes":[],"default_left":[0,0,0,0,0,0,0,0,0],"id":5,"left_children":[1,3,5,-1,7,-1,-1,-1,-1],"loss_changes":[7.2253954E-1,7.563266E-2,1.5738815E-2,0E0,8.569792E-3,0E0,0E0,0E0,0E0],"parents":[2147483647,0,0,1,1,2,2,4,4],"right_children":[2,4,6,-1,8,-1,-1,-1,-1],"split_conditions":[3.13E-1,2E-1,5E0,-2.4950057E-2,1E0,1.1691564E-2,2.5368646E-2,-9.473161E-3,-1.0977805E-3],"split_indices":[3,3,28,0,6,0,0,0,0],"split_type":[0,0,0,0,0,0,0,0,0],"sum_hessian":[2E1,1.1E1,9E0,5E0,6E0,5E0,4E0,4E0,2E0],"tree_param":{"num_deleted":"0","num_feature":"48","num_nodes":"9","size_leaf_vector":"1"}},{"base_weights":[-1.3696594E-3,-1.5322968E-1,1.8099934E-1,-2.2870883E-2,-6.664332E-2,6.1178785E-3,2.0330714E-1,-8.715309E-3,-1.024594E-3,8.87777E-3,2.2668732E-2],"categories":[],"categories_nodes":[],"categories_segments":[],"categories_sizes":[],"default_left":[0,0,1,0,0,0,0,0,0,0,0],"id":6,"left_children":[1,3,5,-1,7,-1,9,-1,-1,-1,-1],"loss_changes":[6.093203E-1,6.3183665E-2,1.4291227E-2,0E0,7.2039124E-3,0E0,1.2969971E-3,0E0,0E0,0E0,0E0],"parents":[2147483647,0,0,1,1,2,2,4,4,6,6],"right_children":[2,4,6,-1,8,-1,10,-1,-1,-1,-1],"split_conditions":[3.13E-1,2E-1,8.571E1,-2.2870883E-2,1E0,6.1178785E-3,9E0,-8.715309E-3,-1.024594E-3,8.87777E-3,2.2668732E-2],"split_indices":[3,3,20,0,6,0,2,0,0,0,0],"split_type":[0,0,0,0,0,0,0,0,0,0,0],"sum_hessian":[2E1,1.1E1,9E0,5E0,6E0,2E0,7E0,4E0,2E0,2E0,5E0],"tree_param":{"num_deleted":"0","num_feature":"48","num_nodes":"11","size_leaf_vector":"1"}},{"base_weights":[-9.920299E-4,-1.4062427E-1,1.6666587E-1,-1.7911299E-1,-1.886861E-2,9.8396E-2,2.1525653E-2,-1.9239584E-2,-3.6425055E-3,-5.6721567E-4,-2.137671E-3,1.0637699E-2,2.9245557E-3],"categories":[],"categories_nodes":[],"categories_segments":[],"categories_sizes":[],"default_left":[0,0,0,0,0,0,0,0,0,0,0,0,0],"id":7,"left_children":[1,3,5,7,9,11,-1,-1,-1,-1,-1,-1,-1],"loss_changes":[5.1505667E-1,5.2855E-2,1.1992395E-2,1.0049731E-2,1.1140015E-5,2.0027533E-4,0E0,0E0,0E0,0E0,0E0,0E0,0E0],"parents":[2147483647,0,0,1,1,2,2,3,3,4,4,5,5],"right_children":[2,4,6,8,10,12,-1,-1,-1,-1,-1,-1,-1],"split_conditions":[3.13E-1,2.22E-1,5E0,2.5E0,1.3E1,5E0,2.1525653E-2,-1.9239584E-2,-3.6425055E-3,-5.6721567E-4,-2.137671E-3,1.0637699E-2,2.9245557E-3],"split_indices":[3,3,28,26,1,0,0,0,0,0,0,0,0],"split_type":[0,0,0,0,0,0,0,0,0,0,0,0,0],"sum_hessian":[2E1,1.1E1,9E0,8E0,3E0,5E0,4E0,7E0,1E0,1E0,2E0,4E0,1E0],"tree_param":{"num_deleted":"0","num_feature":"48","num_nodes":"13","size_leaf_vector":"1"}},{"base_weights":[-4.403804E-4,-1.2869409E-1,1.535081E-1,-1.9361675E-2,-5.4661214E-2,1.0518637E-1,2.311967E-2,-7.1328953E-3,-8.6612505E-4,2.7783276E-3,1.1227492E-2],"categories":[],"categories_nodes":[],"categories_segments":[],"categories_sizes":[],"default_left":[0,0,0,0,0,0,0,0,0,0,0],"id":8,"left_children":[1,3,5,-1,7,9,-1,-1,-1,-1,-1],"loss_changes":[4.343893E-1,4.7093615E-2,1.3221726E-2,0E0,4.7492087E-3,1.2700409E-3,0E0,0E0,0E0,0E0,0E0],"parents":[2147483647,0,0,1,1,2,2,4,4,5,5],"right_children":[2,4,6,-1,8,10,-1,-1,-1,-1,-1],"split_conditions":[3.13E-1,2E-1,7E0,-1.9361675E-2,1E0,4.55E-1,2.311967E-2,-7.1328953E-3,-8.6612505E-4,2.7783276E-3,1.1227492E-2],"split_indices":[3,3,10,0,6,3,0,0,0,0,0],"split_type":[0,0,0,0,0,0,0,0,0,0,0],"sum_hessian":[2E1,1.1E1,9E0,5E0,6E0,7E0,2E0,4E0,2E0,1E0,6E0],"tree_param":{"num_deleted":"0","num_feature":"48","num_nodes":"11","size_leaf_vector":"1"}},{"base_weights":[6.864326E-5,-1.1810474E-1,1.4186984E-1,-1.7748203E-2,-5.0337818E-2,9.641846E-2,2.1578355E-2,-7.264948E-3,-1.5441701E-3,2.6394099E-3,1.0265136E-2],"categories":[],"categories_nodes":[],"categories_segments":[],"categories_sizes":[],"default_left":[0,0,0,0,0,0,0,0,0,0,0],"id":9,"left_children":[1,3,5,-1,7,9,-1,-1,-1,-1,-1],"loss_changes":[3.6865517E-1,3.9351746E-2,1.2789279E-2,0E0,4.3282993E-3,7.822439E-4,0E0,0E0,0E0,0E0,0E0],"parents":[2147483647,0,0,1,1,2,2,4,4,5,5],"right_children":[2,4,6,-1,8,10,-1,-1,-1,-1,-1],"split_conditions":[3.13E-1,2E-1,7E0,-1.7748203E-2,2.22E-1,4.55E-1,2.1578355E-2,-7.264948E-3,-1.5441701E-3,2.6394099E-3,1.0265136E-2],"split_indices":[3,3,10,0,3,3,0,0,0,0,0],"split_type":[0,0,0,0,0,0,0,0,0,0,0],"sum_hessian":[2E1,1.1E1,9E0,5E0,6E0,7E0,2E0,3E0,3E0,1E0,6E0],"tree_param":{"num_deleted":"0","num_feature":"48","num_nodes":"11","size_leaf_vector":"1"}},{"base_weights":[4.3919683E-4,-1.0850738E-1,1.3113117E-1,-1.6269188E-2,-4.6562467E-2,8.83897E-2,2.0139802E-2,-6.720075E-3,-1.4283567E-3,2.5074393E-3,9.385269E-3],"categories":[],"categories_nodes":[],"categories_segments":[],"categories_sizes":[],"default_left":[0,0,0,0,0,0,0,0,0,0,0],"id":10,"left_children":[1,3,5,-1,7,9,-1,-1,-1,-1,-1],"loss_changes":[3.13236E-1,3.270212E-2,1.2231559E-2,0E0,3.7034005E-3,4.138276E-4,0E0,0E0,0E0,0E0,0E0],"parents":[2147483647,0,0,1,1,2,2,4,4,5,5],"right_children":[2,4,6,-1,8,10,-1,-1,-1,-1,-1],"split_conditions":[3.13E-1,2E-1,7E0,-1.6269188E-2,2.22E-1,4.55E-1,2.0139802E-2,-6.720075E-3,-1.4283567E-3,2.5074393E-3,9.385269E-3],"split_indices":[3,3,10,0,3,3,0,0,0,0,0],"split_type":[0,0,0,0,0,0,0,0,0,0,0],"sum_hessian":[2E1,1.1E1,9E0,5E0,6E0,7E0,2E0,3E0,3E0,1E0,6E0],"tree_param":{"num_deleted":"0","num_feature":"48","num_nodes":"11","size_leaf_vector":"1"}},{"base_weights":[7.579057E-4,-9.9691436E-2,1.2122132E-1,-1.491342E-2,-4.3070283E-2,8.103735E-2,1.8797148E-2,-6.21607E-3,-1.3212294E-3,2.3820668E-3,8.580822E-3],"categories":[],"categories_nodes":[],"categories_segments":[],"categories_sizes":[],"default_left":[0,0,0,0,0,0,0,0,0,0,0],"id":11,"left_children":[1,3,5,-1,7,9,-1,-1,-1,-1,-1],"loss_changes":[2.661946E-1,2.7170837E-2,1.1590153E-2,0E0,3.1687254E-3,1.3977289E-4,0E0,0E0,0E0,0E0,0E0],"parents":[2147483647,0,0,1,1,2,2,4,4,5,5],"right_children":[2,4,6,-1,8,10,-1,-1,-1,-1,-1],"split_conditions":[3.13E-1,2E-1,7E0,-1.491342E-2,2.22E-1,4.55E-1,1.8797148E-2,-6.21607E-3,-1.3212294E-3,2.3820668E-3,8.580822E-3],"split_indices":[3,3,10,0,3,3,0,0,0,0,0],"split_type":[0,0,0,0,0,0,0,0,0,0,0],"sum_hessian":[2E1,1.1E1,9E0,5E0,6E0,7E0,2E0,3E0,3E0,1E0,6E0],"tree_param":{"num_deleted":"0","num_feature":"48","num_nodes":"11","size_leaf_vector":"1"}},{"base_weights":[1.0301883E-3,-9.1593176E-2,1.120752E-1,-1.580357E-2,-5.188614E-2,7.4303993E-3,1.7544003E-2,-6.9681644E-3,-1.2221351E-3],"categories":[],"categories_nodes":[],"categories_segments":[],"categories_sizes":[],"default_left":[0,0,0,0,0,0,0,0,0],"id":12,"left_children":[1,3,5,-1,7,-1,-1,-1,-1],"loss_changes":[2.2625794E-1,2.3458973E-2,1.08977705E-2,0E0,5.5010878E-3,0E0,0E0,0E0,0E0],"parents":[2147483647,0,0,1,1,2,2,4,4],"right_children":[2,4,6,-1,8,-1,-1,-1,-1],"split_conditions":[3.13E-1,2.22E-1,7E0,-1.580357E-2,2.22E-1,7.4303993E-3,1.7544003E-2,-6.9681644E-3,-1.2221351E-3],"split_indices":[3,32,10,0,3,0,0,0,0],"split_type":[0,0,0,0,0,0,0,0,0],"sum_hessian":[2E1,1.1E1,9E0,3E0,8E0,7E0,2E0,5E0,3E0],"tree_param":{"num_deleted":"0","num_feature":"48","num_nodes":"9","size_leaf_vector":"1"}},{"base_weights":[9.738448E-4,-8.4433354E-2,1.033651E-1,-1.4618302E-2,-4.7607575E-2,6.780237E-2,1.6374402E-2,-7.543783E-3,-2.1119476E-3,1.8914462E-3,7.2084293E-3],"categories":[],"categories_nodes":[],"categories_segments":[],"categories_sizes":[],"default_left":[0,0,0,0,0,0,0,0,0,0,0],"id":13,"left_children":[1,3,5,-1,7,9,-1,-1,-1,-1,-1],"loss_changes":[1.9237141E-1,2.0328343E-2,1.0370158E-2,0E0,5.0413273E-3,3.1123683E-4,0E0,0E0,0E0,0E0,0E0],"parents":[2147483647,0,0,1,1,2,2,4,4,5,5],"right_children":[2,4,6,-1,8,10,-1,-1,-1,-1,-1],"split_conditions":[3.13E-1,2.22E-1,7E0,-1.4618302E-2,8E1,4.55E-1,1.6374402E-2,-7.543783E-3,-2.1119476E-3,1.8914462E-3,7.2084293E-3],"split_indices":[3,32,10,0,27,3,0,0,0,0,0],"split_type":[0,0,0,0,0,0,0,0,0,0,0],"sum_hessian":[2E1,1.1E1,9E0,3E0,8E0,7E0,2E0,3E0,5E0,1E0,6E0],"tree_param":{"num_deleted":"0","num_feature":"48","num_nodes":"11","size_leaf_vector":"1"}},{"base_weights":[9.336145E-4,-7.801285E-2,9.5576E-2,-1.3521931E-2,-4.3919656E-2,6.215959E-2,1.5282779E-2,-6.9779977E-3,-1.9359499E-3,1.7968745E-3,6.590561E-3],"categories":[],"categories_nodes":[],"categories_segments":[],"categories_sizes":[],"default_left":[0,0,0,0,0,0,0,0,0,0,0],"id":14,"left_children":[1,3,5,-1,7,9,-1,-1,-1,-1,-1],"loss_changes":[1.6436148E-1,1.7465428E-2,9.631775E-3,0E0,4.365295E-3,1.4007464E-4,0E0,0E0,0E0,0E0,0E0],"parents":[2147483647,0,0,1,1,2,2,4,4,5,5],"right_children":[2,4,6,-1,8,10,-1,-1,-1,-1,-1],"split_conditions":[3.13E-1,2.22E-1,7E0,-1.3521931E-2,8E1,4.55E-1,1.5282779E-2,-6.9779977E-3,-1.9359499E-3,1.7968745E-3,6.590561E-3],"split_indices":[3,32,10,0,27,3,0,0,0,0,0],"split_type":[0,0,0,0,0,0,0,0,0,0,0],"sum_hessian":[2E1,1.1E1,9E0,3E0,8E0,7E0,2E0,3E0,5E0,1E0,6E0],"tree_param":{"num_deleted":"0","num_feature":"48","num_nodes":"11","size_leaf_vector":"1"}},{"base_weights":[8.9901546E-4,-7.208122E-2,8.83854E-2,-1.2507788E-2,-4.051813E-2,5.6992024E-2,1.4263928E-2,-5.5264663E-3,-8.2688034E-4,2.5208115E-3,6.3385307E-3],"categories":[],"categories_nodes":[],"categories_segments":[],"categories_sizes":[],"default_left":[0,0,0,0,0,1,0,0,0,0,0],"id":15,"left_children":[1,3,5,-1,7,9,-1,-1,-1,-1,-1],"loss_changes":[1.4045127E-1,1.5004937E-2,8.902818E-3,0E0,3.8231164E-3,2.7803704E-5,0E0,0E0,0E0,0E0,0E0],"parents":[2147483647,0,0,1,1,2,2,4,4,5,5],"right_children":[2,4,6,-1,8,10,-1,-1,-1,-1,-1],"split_conditions":[3.13E-1,2.22E-1,7E0,-1.2507788E-2,2.22E-1,1E2,1.4263928E-2,-5.5264663E-3,-8.2688034E-4,2.5208115E-3,6.3385307E-3],"split_indices":[3,32,10,0,3,20,0,0,0,0,0],"split_type":[0,0,0,0,0,0,0,0,0,0,0],"sum_hessian":[2E1,1.1E1,9E0,3E0,8E0,7E0,2E0,5E0,3E0,2E0,5E0],"tree_param":{"num_deleted":"0","num_feature":"48","num_nodes":"11","size_leaf_vector":"1"}},{"base_weights":[1.0120883E-3,-6.644485E-2,8.185921E-2,-1.1569704E-2,-3.717223E-2,5.240028E-3,1.3312995E-2,-6.0401633E-3,-1.5490592E-3],"categories":[],"categories_nodes":[],"categories_segments":[],"categories_sizes":[],"default_left":[0,0,0,0,0,0,0,0,0],"id":16,"left_children":[1,3,5,-1,7,-1,-1,-1,-1],"loss_changes":[1.1996681E-1,1.3000164E-2,8.127764E-3,0E0,3.5972074E-3,0E0,0E0,0E0,0E0],"parents":[2147483647,0,0,1,1,2,2,4,4],"right_children":[2,4,6,-1,8,-1,-1,-1,-1],"split_conditions":[3.13E-1,2.22E-1,7E0,-1.1569704E-2,8E1,5.240028E-3,1.3312995E-2,-6.0401633E-3,-1.5490592E-3],"split_indices":[3,32,10,0,27,0,0,0,0],"split_type":[0,0,0,0,0,0,0,0,0],"sum_hessian":[2E1,1.1E1,9E0,3E0,8E0,7E0,2E0,3E0,5E0],"tree_param":{"num_deleted":"0","num_feature":"48","num_nodes":"9","size_leaf_vector":"1"}},{"base_weights":[8.820026E-4,-6.139695E-2,7.552855E-2,-1.0701978E-2,-3.4298256E-2,4.781521E-2,1.2425459E-2,-5.5871517E-3,-1.4199704E-3,2.0034215E-3,5.3736507E-3],"categories":[],"categories_nodes":[],"categories_segments":[],"categories_sizes":[],"default_left":[0,0,0,0,0,1,0,0,0,0,0],"id":17,"left_children":[1,3,5,-1,7,9,-1,-1,-1,-1,-1],"loss_changes":[1.0226429E-1,1.1165235E-2,7.562354E-3,0E0,3.1089634E-3,2.3942627E-4,0E0,0E0,0E0,0E0,0E0],"parents":[2147483647,0,0,1,1,2,2,4,4,5,5],"right_children":[2,4,6,-1,8,10,-1,-1,-1,-1,-1],"split_conditions":[3.13E-1,2.22E-1,7E0,-1.0701978E-2,8E1,1E2,1.2425459E-2,-5.5871517E-3,-1.4199704E-3,2.0034215E-3,5.3736507E-3],"split_indices":[3,32,10,0,27,20,0,0,0,0,0],"split_type":[0,0,0,0,0,0,0,0,0,0,0],"sum_hessian":[2E1,1.1E1,9E0,3E0,8E0,7E0,2E0,3E0,5E0,2E0,5E0],"tree_param":{"num_deleted":"0","num_feature":"48","num_nodes":"11","size_leaf_vector":"1"}},{"base_weights":[8.935006E-4,-5.673302E-2,6.9955975E-2,-7.323431E-2,-5.421862E-3,4.3955855E-2,1.1597097E-2,-2.7953715E-3,-9.121566E-3,-1.2077749E-3,8.2268314E-5,5.5882335E-3,2.5623501E-3],"categories":[],"categories_nodes":[],"categories_segments":[],"categories_sizes":[],"default_left":[0,0,0,0,0,0,0,0,0,0,0,0,0],"id":18,"left_children":[1,3,5,7,9,11,-1,-1,-1,-1,-1,-1,-1],"loss_changes":[8.7545246E-2,9.763334E-3,6.866347E-3,4.7780424E-3,1.7618813E-4,3.1722337E-4,0E0,0E0,0E0,0E0,0E0,0E0,0E0],"parents":[2147483647,0,0,1,1,2,2,3,3,4,4,5,5],"right_children":[2,4,6,8,10,12,-1,-1,-1,-1,-1,-1,-1],"split_conditions":[3.13E-1,2.22E-1,7E0,6E0,9E0,1E0,1.1597097E-2,-2.7953715E-3,-9.121566E-3,-1.2077749E-3,8.2268314E-5,5.5882335E-3,2.5623501E-3],"split_indices":[3,3,10,34,2,13,0,0,0,0,0,0,0],"split_type":[0,0,0,0,0,0,0,0,0,0,0,0,0],"sum_hessian":[2E1,1.1E1,9E0,8E0,3E0,7E0,2E0,3E0,5E0,1E0,2E0,3E0,4E0],"tree_param":{"num_deleted":"0","num_feature":"48","num_nodes":"13","size_leaf_vector":"1"}},{"base_weights":[1.1234354E-3,-5.214659E-2,6.4935125E-2,-9.215216E-3,-2.8572274E-2,4.057908E-2,1.0823953E-2,-3.7064857E-3,7.678469E-5,5.6232694E-3,2.5989094E-3],"categories":[],"categories_nodes":[],"categories_segments":[],"categories_sizes":[],"default_left":[0,0,0,0,0,0,0,0,0,0,0],"id":19,"left_children":[1,3,5,-1,7,9,-1,-1,-1,-1,-1],"loss_changes":[7.4770406E-2,8.684248E-3,6.154977E-3,0E0,2.2710217E-3,3.656512E-4,0E0,0E0,0E0,0E0,0E0],"parents":[2147483647,0,0,1,1,2,2,4,4,5,5],"right_children":[2,4,6,-1,8,10,-1,-1,-1,-1,-1],"split_conditions":[3.13E-1,2.22E-1,7E0,-9.215216E-3,1E0,2E0,1.0823953E-2,-3.7064857E-3,7.678469E-5,5.6232694E-3,2.5989094E-3],"split_indices":[3,32,10,0,6,11,0,0,0,0,0],"split_type":[0,0,0,0,0,0,0,0,0,0,0],"sum_hessian":[2E1,1.1E1,9E0,3E0,8E0,7E0,2E0,6E0,2E0,2E0,5E0],"tree_param":{"num_deleted":"0","num_feature":"48","num_nodes":"11","size_leaf_vector":"1"}},{"base_weights":[1.3064061E-3,-4.800233E-2,6.0346246E-2,-8.524075E-3,-2.6118325E-2,3.7497982E-2,1.0115954E-2,-4.364164E-3,-1.008306E-3,2.1494485E-3,4.812786E-3],"categories":[],"categories_nodes":[],"categories_segments":[],"categories_sizes":[],"default_left":[0,0,0,0,0,0,0,0,0,0,0],"id":20,"left_children":[1,3,5,-1,7,9,-1,-1,-1,-1,-1],"loss_changes":[6.403154E-2,7.5527634E-3,5.5318475E-3,0E0,2.0888783E-3,3.2643788E-4,0E0,0E0,0E0,0E0,0E0],"parents":[2147483647,0,0,1,1,2,2,4,4,5,5],"right_children":[2,4,6,-1,8,10,-1,-1,-1,-1,-1],"split_conditions":[3.13E-1,2.22E-1,5.56E-1,-8.524075E-3,8E1,3E0,1.0115954E-2,-4.364164E-3,-1.008306E-3,2.1494485E-3,4.812786E-3],"split_indices":[3,32,3,0,27,35,0,0,0,0,0],"split_type":[0,0,0,0,0,0,0,0,0,0,0],"sum_hessian":[2E1,1.1E1,9E0,3E0,8E0,7E0,2E0,3E0,5E0,4E0,3E0],"tree_param":{"num_deleted":"0","num_feature":"48","num_nodes":"11","size_leaf_vector":"1"}},{"base_weights":[1.3272719E-3,-4.436012E-2,5.6019414E-2,-1.0323179E-2,-2.9623441E-2,3.4006536E-2,9.604729E-3,-3.8973955E-3,-3.516555E-4,4.7507603E-3,2.1588246E-3],"categories":[],"categories_nodes":[],"categories_segments":[],"categories_sizes":[],"default_left":[0,0,0,0,0,0,0,0,0,0,0],"id":21,"left_children":[1,3,5,-1,7,9,-1,-1,-1,-1,-1],"loss_changes":[5.4958593E-2,7.3527955E-3,5.54505E-3,0E0,2.548186E-3,3.156755E-4,0E0,0E0,0E0,0E0,0E0],"parents":[2147483647,0,0,1,1,2,2,4,4,5,5],"right_children":[2,4,6,-1,8,10,-1,-1,-1,-1,-1],"split_conditions":[3.13E-1,3.333E1,7E0,-1.0323179E-2,2.22E-1,2E0,9.604729E-3,-3.8973955E-3,-3.516555E-4,4.7507603E-3,2.1588246E-3],"split_indices":[3,24,10,0,3,11,0,0,0,0,0],"split_type":[0,0,0,0,0,0,0,0,0,0,0],"sum_hessian":[2E1,1.1E1,9E0,1E0,1E1,7E0,2E0,7E0,3E0,2E0,5E0],"tree_param":{"num_deleted":"0","num_feature":"48","num_nodes":"11","size_leaf_vector":"1"}},{"base_weights":[1.2870161E-3,-4.1138466E-2,5.2068897E-2,-9.80702E-3,-2.7047383E-2,3.146956E-2,8.964416E-3,-3.3599024E-3,1.6233325E-4,4.434045E-3,1.978919E-3],"categories":[],"categories_nodes":[],"categories_segments":[],"categories_sizes":[],"default_left":[0,0,0,0,0,0,0,0,0,0,0],"id":22,"left_children":[1,3,5,-1,7,9,-1,-1,-1,-1,-1],"loss_changes":[4.73854E-2,6.9742184E-3,4.91919E-3,0E0,2.1207845E-3,3.2523274E-4,0E0,0E0,0E0,0E0,0E0],"parents":[2147483647,0,0,1,1,2,2,4,4,5,5],"right_children":[2,4,6,-1,8,10,-1,-1,-1,-1,-1],"split_conditions":[3.13E-1,3.333E1,7E0,-9.80702E-3,1E0,2E0,8.964416E-3,-3.3599024E-3,1.6233325E-4,4.434045E-3,1.978919E-3],"split_indices":[3,24,10,0,6,11,0,0,0,0,0],"split_type":[0,0,0,0,0,0,0,0,0,0,0],"sum_hessian":[2E1,1.1E1,9E0,1E0,1E1,7E0,2E0,8E0,2E0,2E0,5E0],"tree_param":{"num_deleted":"0","num_feature":"48","num_nodes":"11","size_leaf_vector":"1"}},{"base_weights":[1.2713245E-3,-3.8108323E-2,4.839977E-2,-9.31667E-3,-2.4633318E-2,2.8563112E-2,8.516427E-3,-8.0874667E-4,-3.7073616E-3,1.1066278E-3,3.255101E-3],"categories":[],"categories_nodes":[],"categories_segments":[],"categories_sizes":[],"default_left":[0,0,0,0,0,1,0,0,0,0,0],"id":23,"left_children":[1,3,5,-1,7,9,-1,-1,-1,-1,-1],"loss_changes":[4.0818367E-2,6.6079367E-3,4.8602894E-3,0E0,1.9643577E-3,1.9798614E-4,0E0,0E0,0E0,0E0,0E0],"parents":[2147483647,0,0,1,1,2,2,4,4,5,5],"right_children":[2,4,6,-1,8,10,-1,-1,-1,-1,-1],"split_conditions":[3.13E-1,3.333E1,5.56E-1,-9.31667E-3,3.722E0,8.571E1,8.516427E-3,-8.0874667E-4,-3.7073616E-3,1.1066278E-3,3.255101E-3],"split_indices":[3,24,3,0,39,20,0,0,0,0,0],"split_type":[0,0,0,0,0,0,0,0,0,0,0],"sum_hessian":[2E1,1.1E1,9E0,1E0,1E1,7E0,2E0,5E0,5E0,2E0,5E0],"tree_param":{"num_deleted":"0","num_feature":"48","num_nodes":"11","size_leaf_vector":"1"}},{"base_weights":[1.0987321E-3,-3.5450216E-2,4.4847596E-2,-8.850835E-3,-2.2580534E-2,2.6155487E-2,7.974402E-3,-9.0689317E-4,-3.698067E-3,3.7460607E-3,1.6143679E-3],"categories":[],"categories_nodes":[],"categories_segments":[],"categories_sizes":[],"default_left":[0,0,0,0,0,0,0,0,0,0,0],"id":24,"left_children":[1,3,5,-1,7,9,-1,-1,-1,-1,-1],"loss_changes":[3.516833E-2,6.1955294E-3,4.4371337E-3,0E0,1.8048827E-3,3.0072546E-4,0E0,0E0,0E0,0E0,0E0],"parents":[2147483647,0,0,1,1,2,2,4,4,5,5],"right_children":[2,4,6,-1,8,10,-1,-1,-1,-1,-1],"split_conditions":[3.13E-1,3.333E1,7E0,-8.850835E-3,9E0,2E0,7.974402E-3,-9.0689317E-4,-3.698067E-3,3.7460607E-3,1.6143679E-3],"split_indices":[3,24,10,0,34,11,0,0,0,0,0],"split_type":[0,0,0,0,0,0,0,0,0,0,0],"sum_hessian":[2E1,1.1E1,9E0,1E0,1E1,7E0,2E0,6E0,4E0,2E0,5E0],"tree_param":{"num_deleted":"0","num_feature":"48","num_nodes":"11","size_leaf_vector":"1"}},{"base_weights":[9.831062E-4,-3.3026513E-2,4.169634E-2,-8.408293E-3,-2.0741118E-2,2.3777984E-2,7.5579844E-3,-6.1925553E-4,-3.183283E-3,1.3428534E-3,3.0770302E-3],"categories":[],"categories_nodes":[],"categories_segments":[],"categories_sizes":[],"default_left":[0,0,0,0,0,0,0,0,0,0,0],"id":25,"left_children":[1,3,5,-1,7,9,-1,-1,-1,-1,-1],"loss_changes":[3.045456E-2,5.7830038E-3,4.2742305E-3,0E0,1.5779268E-3,1.6573304E-4,0E0,0E0,0E0,0E0,0E0],"parents":[2147483647,0,0,1,1,2,2,4,4,5,5],"right_children":[2,4,6,-1,8,10,-1,-1,-1,-1,-1],"split_conditions":[3.13E-1,3.333E1,5.56E-1,-8.408293E-3,3.722E0,3E0,7.5579844E-3,-6.1925553E-4,-3.183283E-3,1.3428534E-3,3.0770302E-3],"split_indices":[3,24,3,0,39,35,0,0,0,0,0],"split_type":[0,0,0,0,0,0,0,0,0,0,0],"sum_hessian":[2E1,1.1E1,9E0,1E0,1E1,7E0,2E0,5E0,5E0,4E0,3E0],"tree_param":{"num_deleted":"0","num_feature":"48","num_nodes":"11","size_leaf_vector":"1"}},{"base_weights":[8.7369484E-4,-3.0741436E-2,3.8724482E-2,-7.987878E-3,-1.9012697E-2,2.4771491E-2,8.21507E-3,-7.028239E-4,-3.1988402E-3,1.0910452E-3,2.9883604E-3],"categories":[],"categories_nodes":[],"categories_segments":[],"categories_sizes":[],"default_left":[0,0,0,0,0,0,0,0,0,0,0],"id":26,"left_children":[1,3,5,-1,7,9,-1,-1,-1,-1,-1],"loss_changes":[2.6320256E-2,5.397116E-3,4.0242607E-3,0E0,1.485752E-3,3.11689E-4,0E0,0E0,0E0,0E0,0E0],"parents":[2147483647,0,0,1,1,2,2,4,4,5,5],"right_children":[2,4,6,-1,8,10,-1,-1,-1,-1,-1],"split_conditions":[3.13E-1,3.333E1,5.71E-1,-7.987878E-3,9E0,2.222E1,8.21507E-3,-7.028239E-4,-3.1988402E-3,1.0910452E-3,2.9883604E-3],"split_indices":[3,24,3,0,34,29,0,0,0,0,0],"split_type":[0,0,0,0,0,0,0,0,0,0,0],"sum_hessian":[2E1,1.1E1,9E0,1E0,1E1,8E0,1E0,6E0,4E0,3E0,5E0],"tree_param":{"num_deleted":"0","num_feature":"48","num_nodes":"11","size_leaf_vector":"1"}},{"base_weights":[8.056107E-4,-3.8114924E-2,2.7688626E-2,-1.9083563E-2,-6.981646E-3,1.44097535E-2,6.7148292E-3,-2.3649414E-3,-5.112628E-4,1.382029E-4,2.1656735E-3],"categories":[],"categories_nodes":[],"categories_segments":[],"categories_sizes":[],"default_left":[0,0,0,0,0,0,0,0,0,0,0],"id":27,"left_children":[1,3,5,7,-1,9,-1,-1,-1,-1,-1],"loss_changes":[2.3027679E-2,4.097564E-3,5.844147E-3,3.2561342E-4,0E0,1.0085981E-3,0E0,0E0,0E0,0E0,0E0],"parents":[2147483647,0,0,1,1,2,2,3,3,5,5],"right_children":[2,4,6,8,-1,10,-1,-1,-1,-1,-1],"split_conditions":[2.22E-1,2E0,7E0,2E-1,-6.981646E-3,4.55E-1,6.7148292E-3,-2.3649414E-3,-5.112628E-4,1.382029E-4,2.1656735E-3],"split_indices":[3,17,10,3,0,3,0,0,0,0,0],"split_type":[0,0,0,0,0,0,0,0,0,0,0],"sum_hessian":[2E1,8E0,1.2E1,6E0,2E0,1E1,2E0,4E0,2E0,4E0,6E0],"tree_param":{"num_deleted":"0","num_feature":"48","num_nodes":"11","size_leaf_vector":"1"}},{"base_weights":[6.850887E-4,-2.93476E-2,3.0655498E-2,-1.4148616E-2,-6.516203E-3,1.8783897E-2,7.468575E-3,-2.1757465E-3,-3.7100434E-4,5.885646E-4,2.3470912E-3],"categories":[],"categories_nodes":[],"categories_segments":[],"categories_sizes":[],"default_left":[0,0,0,0,0,1,0,0,0,0,0],"id":28,"left_children":[1,3,5,7,-1,9,-1,-1,-1,-1,-1],"loss_changes":[1.9801596E-2,5.0658192E-3,4.3469165E-3,6.3410855E-4,0E0,4.6640146E-4,0E0,0E0,0E0,0E0,0E0],"parents":[2147483647,0,0,1,1,2,2,3,3,5,5],"right_children":[2,4,6,8,-1,10,-1,-1,-1,-1,-1],"split_conditions":[3.08E-1,2E0,5.71E-1,2E-1,-6.516203E-3,8.571E1,7.468575E-3,-2.1757465E-3,-3.7100434E-4,5.885646E-4,2.3470912E-3],"split_indices":[3,17,3,3,0,20,0,0,0,0,0],"split_type":[0,0,0,0,0,0,0,0,0,0,0],"sum_hessian":[2E1,1E1,1E1,8E0,2E0,9E0,1E0,4E0,4E0,3E0,6E0],"tree_param":{"num_deleted":"0","num_feature":"48","num_nodes":"11","size_leaf_vector":"1"}},{"base_weights":[6.804438E-4,-3.290126E-2,2.3876974E-2,-1.6236812E-2,-6.081789E-3,1.1697883E-2,6.057465E-3,-2.0016867E-3,-4.5244495E-4,4.997723E-4,2.2173733E-3],"categories":[],"categories_nodes":[],"categories_segments":[],"categories_sizes":[],"default_left":[0,0,0,0,0,0,0,0,0,0,0],"id":29,"left_children":[1,3,5,7,-1,9,-1,-1,-1,-1,-1],"loss_changes":[1.7144142E-2,3.1994488E-3,5.1016817E-3,2.1934847E-4,0E0,6.612702E-4,0E0,0E0,0E0,0E0,0E0],"parents":[2147483647,0,0,1,1,2,2,3,3,5,5],"right_children":[2,4,6,8,-1,10,-1,-1,-1,-1,-1],"split_conditions":[2.22E-1,2E0,5.56E-1,2E-1,-6.081789E-3,3E0,6.057465E-3,-2.0016867E-3,-4.5244495E-4,4.997723E-4,2.2173733E-3],"split_indices":[3,17,3,3,0,35,0,0,0,0,0],"split_type":[0,0,0,0,0,0,0,0,0,0,0],"sum_hessian":[2E1,8E0,1.2E1,6E0,2E0,1E1,2E0,4E0,2E0,7E0,3E0],"tree_param":{"num_deleted":"0","num_feature":"48","num_nodes":"11","size_leaf_vector":"1"}},{"base_weights":[6.237612E-4,-2.5411695E-2,2.6602512E-2,-1.2137615E-2,-5.676337E-3,1.5678221E-2,6.792271E-3,-1.8415516E-3,-3.4321906E-4,2.1211347E-3,5.9028267E-4],"categories":[],"categories_nodes":[],"categories_segments":[],"categories_sizes":[],"default_left":[0,0,0,0,0,0,0,0,0,0,0],"id":30,"left_children":[1,3,5,7,-1,9,-1,-1,-1,-1,-1],"loss_changes":[1.4879757E-2,3.888839E-3,3.9004246E-3,4.2866054E-4,0E0,4.156779E-4,0E0,0E0,0E0,0E0,0E0],"parents":[2147483647,0,0,1,1,2,2,3,3,5,5],"right_children":[2,4,6,8,-1,10,-1,-1,-1,-1,-1],"split_conditions":[3.08E-1,2E0,5.71E-1,2E-1,-5.676337E-3,5E1,6.792271E-3,-1.8415516E-3,-3.4321906E-4,2.1211347E-3,5.9028267E-4],"split_indices":[3,17,3,3,0,31,0,0,0,0,0],"split_type":[0,0,0,0,0,0,0,0,0,0,0],"sum_hessian":[2E1,1E1,1E1,8E0,2E0,9E0,1E0,4E0,4E0,5E0,4E0],"tree_param":{"num_deleted":"0","num_feature":"48","num_nodes":"11","size_leaf_vector":"1"}},{"base_weights":[6.396047E-4,-2.151318E-2,2.7158987E-2,-6.325686E-3,-1.1967678E-2,1.5837418E-2,6.452656E-3,-1.5613844E-3,2.960046E-4,6.464094E-4,1.9446731E-3],"categories":[],"categories_nodes":[],"categories_segments":[],"categories_sizes":[],"default_left":[0,0,0,0,0,0,0,0,0,0,0],"id":31,"left_children":[1,3,5,-1,7,9,-1,-1,-1,-1,-1],"loss_changes":[1.2921319E-2,4.024535E-3,3.208662E-3,0E0,6.4493634E-4,1.7877575E-4,0E0,0E0,0E0,0E0,0E0],"parents":[2147483647,0,0,1,1,2,2,4,4,5,5],"right_children":[2,4,6,-1,8,10,-1,-1,-1,-1,-1],"split_conditions":[3.13E-1,3.333E1,5.71E-1,-6.325686E-3,1E0,2.222E1,6.452656E-3,-1.5613844E-3,2.960046E-4,6.464094E-4,1.9446731E-3],"split_indices":[3,24,3,0,6,29,0,0,0,0,0],"split_type":[0,0,0,0,0,0,0,0,0,0,0],"sum_hessian":[2E1,1.1E1,9E0,1E0,1E1,8E0,1E0,8E0,2E0,3E0,5E0],"tree_param":{"num_deleted":"0","num_feature":"48","num_nodes":"11","size_leaf_vector":"1"}},{"base_weights":[6.4483145E-4,-1.9994443E-2,2.5347477E-2,-6.0094013E-3,-1.0885935E-2,1.4541592E-2,6.130022E-3,-2.593249E-4,-1.7364299E-3,1.8039605E-3,5.659178E-4],"categories":[],"categories_nodes":[],"categories_segments":[],"categories_sizes":[],"default_left":[0,0,0,0,0,0,0,0,0,0,0],"id":32,"left_children":[1,3,5,-1,7,9,-1,-1,-1,-1,-1],"loss_changes":[1.1213547E-2,3.7287874E-3,2.9936084E-3,0E0,5.459235E-4,1.7754792E-4,0E0,0E0,0E0,0E0,0E0],"parents":[2147483647,0,0,1,1,2,2,4,4,5,5],"right_children":[2,4,6,-1,8,10,-1,-1,-1,-1,-1],"split_conditions":[3.13E-1,3.333E1,5.71E-1,-6.0094013E-3,3.722E0,5E1,6.130022E-3,-2.593249E-4,-1.7364299E-3,1.8039605E-3,5.659178E-4],"split_indices":[3,24,3,0,39,31,0,0,0,0,0],"split_type":[0,0,0,0,0,0,0,0,0,0,0],"sum_hessian":[2E1,1.1E1,9E0,1E0,1E1,8E0,1E0,5E0,5E0,5E0,3E0],"tree_param":{"num_deleted":"0","num_feature":"48","num_nodes":"11","size_leaf_vector":"1"}},{"base_weights":[6.039029E-4,-2.4796141E-2,1.8142095E-2,-5.7089315E-3,-1.3623331E-2,9.948065E-3,5.823523E-3,-1.9490346E-3,-6.2050525E-4,2.6055065E-4,1.6856373E-3],"categories":[],"categories_nodes":[],"categories_segments":[],"categories_sizes":[],"default_left":[0,0,0,0,1,0,0,0,0,0,0],"id":33,"left_children":[1,3,5,-1,7,9,-1,-1,-1,-1,-1],"loss_changes":[9.804742E-3,2.4695033E-3,3.691488E-3,0E0,2.2724655E-4,5.6477636E-4,0E0,0E0,0E0,0E0,0E0],"parents":[2147483647,0,0,1,1,2,2,4,4,5,5],"right_children":[2,4,6,-1,8,10,-1,-1,-1,-1,-1],"split_conditions":[2.22E-1,3.333E1,5.71E-1,-5.7089315E-3,2.5E1,5E0,5.823523E-3,-1.9490346E-3,-6.2050525E-4,2.6055065E-4,1.6856373E-3],"split_indices":[3,24,3,0,30,4,0,0,0,0,0],"split_type":[0,0,0,0,0,0,0,0,0,0,0],"sum_hessian":[2E1,8E0,1.2E1,1E0,7E0,1.1E1,1E0,3E0,4E0,6E0,5E0],"tree_param":{"num_deleted":"0","num_feature":"48","num_nodes":"11","size_leaf_vector":"1"}},{"base_weights":[5.1928416E-4,-1.5971582E-2,2.4281727E-2,-5.423485E-3,-8.263406E-3,1.3486072E-2,5.532348E-3,-1.2278315E-3,2.835989E-4,4.5591593E-4,1.7930389E-3],"categories":[],"categories_nodes":[],"categories_segments":[],"categories_sizes":[],"default_left":[0,0,0,0,0,0,0,0,0,0,0],"id":34,"left_children":[1,3,5,-1,7,9,-1,-1,-1,-1,-1],"loss_changes":[8.616947E-3,3.3860554E-3,2.269948E-3,0E0,5.695779E-4,2.3564475E-4,0E0,0E0,0E0,0E0,0E0],"parents":[2147483647,0,0,1,1,2,2,4,4,5,5],"right_children":[2,4,6,-1,8,10,-1,-1,-1,-1,-1],"split_conditions":[4.55E-1,3.333E1,5.71E-1,-5.423485E-3,1E0,9E0,5.532348E-3,-1.2278315E-3,2.835989E-4,4.5591593E-4,1.7930389E-3],"split_indices":[3,24,3,0,6,2,0,0,0,0,0],"split_type":[0,0,0,0,0,0,0,0,0,0,0],"sum_hessian":[2E1,1.2E1,8E0,1E0,1.1E1,7E0,1E0,8E0,3E0,3E0,4E0],"tree_param":{"num_deleted":"0","num_feature":"48","num_nodes":"11","size_leaf_vector":"1"}},{"base_weights":[5.346792E-4,-1.4864238E-2,2.2718152E-2,-5.1523107E-3,-7.515741E-3,1.2418598E-2,5.255729E-3,-1.1186894E-3,2.6232898E-4,1.6708662E-3,3.951371E-4],"categories":[],"categories_nodes":[],"categories_segments":[],"categories_sizes":[],"default_left":[0,0,0,0,0,0,0,0,0,0,0],"id":35,"left_children":[1,3,5,-1,7,9,-1,-1,-1,-1,-1],"loss_changes":[7.5113187E-3,3.1148042E-3,2.1132804E-3,0E0,4.760098E-4,2.2457738E-4,0E0,0E0,0E0,0E0,0E0],"parents":[2147483647,0,0,1,1,2,2,4,4,5,5],"right_children":[2,4,6,-1,8,10,-1,-1,-1,-1,-1],"split_conditions":[4.55E-1,3.333E1,5.71E-1,-5.1523107E-3,1E0,2.5E0,5.255729E-3,-1.1186894E-3,2.6232898E-4,1.6708662E-3,3.951371E-4],"split_indices":[3,24,3,0,6,26,0,0,0,0,0],"split_type":[0,0,0,0,0,0,0,0,0,0,0],"sum_hessian":[2E1,1.2E1,8E0,1E0,1.1E1,7E0,1E0,8E0,3E0,4E0,3E0],"tree_param":{"num_deleted":"0","num_feature":"48","num_nodes":"11","size_leaf_vector":"1"}},{"base_weights":[5.43732E-4,-1.6796885E-2,1.7834919E-2,-4.894695E-3,-8.687183E-3,9.632522E-3,4.992944E-3,-4.324995E-4,-1.7423958E-3,2.955854E-4,1.3590992E-3],"categories":[],"categories_nodes":[],"categories_segments":[],"categories_sizes":[],"default_left":[0,0,0,0,0,0,0,0,0,0,0],"id":36,"left_children":[1,3,5,-1,7,9,-1,-1,-1,-1,-1],"loss_changes":[6.596207E-3,2.4427902E-3,2.4148251E-3,0E0,3.05756E-4,2.241208E-4,0E0,0E0,0E0,0E0,0E0],"parents":[2147483647,0,0,1,1,2,2,4,4,5,5],"right_children":[2,4,6,-1,8,10,-1,-1,-1,-1,-1],"split_conditions":[4E0,3.333E1,5.71E-1,-4.894695E-3,3E0,5.56E-1,4.992944E-3,-4.324995E-4,-1.7423958E-3,2.955854E-4,1.3590992E-3],"split_indices":[37,24,3,0,19,32,0,0,0,0,0],"split_type":[0,0,0,0,0,0,0,0,0,0,0],"sum_hessian":[2E1,1E1,1E1,1E0,9E0,9E0,1E0,7E0,2E0,4E0,5E0],"tree_param":{"num_deleted":"0","num_feature":"48","num_nodes":"11","size_leaf_vector":"1"}},{"base_weights":[4.6926027E-4,-1.0661823E-2,2.4254544E-2,-4.6499595E-3,-4.780582E-3,1.2485981E-2,4.743296E-3,-7.783175E-6,-1.3229967E-3,1.698044E-3,2.3313762E-4],"categories":[],"categories_nodes":[],"categories_segments":[],"categories_sizes":[],"default_left":[0,0,0,0,0,0,0,0,0,0,0],"id":37,"left_children":[1,3,5,-1,7,9,-1,-1,-1,-1,-1],"loss_changes":[5.8184727E-3,2.939263E-3,1.3171895E-3,0E0,5.552651E-4,2.3424887E-4,0E0,0E0,0E0,0E0,0E0],"parents":[2147483647,0,0,1,1,2,2,4,4,5,5],"right_children":[2,4,6,-1,8,10,-1,-1,-1,-1,-1],"split_conditions":[5E0,3.333E1,5.71E-1,-4.6499595E-3,9E0,2E0,4.743296E-3,-7.783175E-6,-1.3229967E-3,1.698044E-3,2.3313762E-4],"split_indices":[4,24,3,0,34,6,0,0,0,0,0],"split_type":[0,0,0,0,0,0,0,0,0,0,0],"sum_hessian":[2E1,1.4E1,6E0,1E0,1.3E1,5E0,1E0,9E0,4E0,3E0,2E0],"tree_param":{"num_deleted":"0","num_feature":"48","num_nodes":"11","size_leaf_vector":"1"}},{"base_weights":[4.5537096E-4,-1.2313618E-2,1.884887E-2,-4.4174613E-3,-5.9773177E-3,9.939656E-3,4.5061293E-3,-2.5586723E-4,-1.5380363E-3,1.3625765E-3,2.8471052E-4],"categories":[],"categories_nodes":[],"categories_segments":[],"categories_sizes":[],"default_left":[0,0,0,0,0,0,0,0,0,0,0],"id":38,"left_children":[1,3,5,-1,7,9,-1,-1,-1,-1,-1],"loss_changes":[5.164292E-3,2.3604054E-3,1.6538945E-3,0E0,3.4639472E-4,1.7035729E-4,0E0,0E0,0E0,0E0,0E0],"parents":[2147483647,0,0,1,1,2,2,4,4,5,5],"right_children":[2,4,6,-1,8,10,-1,-1,-1,-1,-1],"split_conditions":[4.55E-1,3.333E1,5.71E-1,-4.4174613E-3,3E0,2.5E0,4.5061293E-3,-2.5586723E-4,-1.5380363E-3,1.3625765E-3,2.8471052E-4],"split_indices":[3,24,3,0,19,26,0,0,0,0,0],"split_type":[0,0,0,0,0,0,0,0,0,0,0],"sum_hessian":[2E1,1.2E1,8E0,1E0,1.1E1,7E0,1E0,9E0,2E0,4E0,3E0],"tree_param":{"num_deleted":"0","num_feature":"48","num_nodes":"11","size_leaf_vector":"1"}},{"base_weights":[4.0708837E-4,-1.4155605E-2,1.4932773E-2,-4.196589E-3,-7.1779876E-3,7.864404E-3,4.2808237E-3,-3.5893582E-4,-1.4355005E-3,1.0920425E-3,2.624297E-4],"categories":[],"categories_nodes":[],"categories_segments":[],"categories_sizes":[],"default_left":[0,0,0,0,0,0,0,0,0,0,0],"id":39,"left_children":[1,3,5,-1,7,9,-1,-1,-1,-1,-1],"loss_changes":[4.653577E-3,1.8333138E-3,1.8307131E-3,0E0,2.0603131E-4,1.3148034E-4,0E0,0E0,0E0,0E0,0E0],"parents":[2147483647,0,0,1,1,2,2,4,4,5,5],"right_children":[2,4,6,-1,8,10,-1,-1,-1,-1,-1],"split_conditions":[4E0,3.333E1,5.71E-1,-4.196589E-3,3E0,1E0,4.2808237E-3,-3.5893582E-4,-1.4355005E-3,1.0920425E-3,2.624297E-4],"split_indices":[37,24,3,0,19,14,0,0,0,0,0],"split_type":[0,0,0,0,0,0,0,0,0,0,0],"sum_hessian":[2E1,1E1,1E1,1E0,9E0,9E0,1E0,7E0,2E0,5E0,4E0],"tree_param":{"num_deleted":"0","num_feature":"48","num_nodes":"11","size_leaf_vector":"1"}},{"base_weights":[3.4944076E-4,-8.973723E-3,2.027773E-2,-3.9867596E-3,-3.919333E-3,1.0101408E-2,4.0667835E-3,-1.1894703E-5,-1.0736239E-3,1.3865948E-3,1.7148853E-4],"categories":[],"categories_nodes":[],"categories_segments":[],"categories_sizes":[],"default_left":[0,0,0,0,0,0,0,0,0,0,0],"id":40,"left_children":[1,3,5,-1,7,9,-1,-1,-1,-1,-1],"loss_changes":[4.083656E-3,2.185991E-3,1.0416715E-3,0E0,3.6141922E-4,1.6564986E-4,0E0,0E0,0E0,0E0,0E0],"parents":[2147483647,0,0,1,1,2,2,4,4,5,5],"right_children":[2,4,6,-1,8,10,-1,-1,-1,-1,-1],"split_conditions":[5E0,3.333E1,5.71E-1,-3.9867596E-3,9E0,2E0,4.0667835E-3,-1.1894703E-5,-1.0736239E-3,1.3865948E-3,1.7148853E-4],"split_indices":[4,24,3,0,34,6,0,0,0,0,0],"split_type":[0,0,0,0,0,0,0,0,0,0,0],"sum_hessian":[2E1,1.4E1,6E0,1E0,1.3E1,5E0,1E0,9E0,4E0,3E0,2E0],"tree_param":{"num_deleted":"0","num_feature":"48","num_nodes":"11","size_leaf_vector":"1"}},{"base_weights":[3.40808E-4,-1.25264255E-2,1.3177059E-2,-3.7874223E-3,-6.2042237E-3,6.767881E-3,3.863442E-3,-2.9994323E-4,-1.268226E-3,9.012376E-4,1.14804505E-4],"categories":[],"categories_nodes":[],"categories_segments":[],"categories_sizes":[],"default_left":[0,0,0,0,0,0,0,0,0,0,0],"id":41,"left_children":[1,3,5,-1,7,9,-1,-1,-1,-1,-1],"loss_changes":[3.6335695E-3,1.5278127E-3,1.533295E-3,0E0,1.6956791E-4,1.1579029E-4,0E0,0E0,0E0,0E0,0E0],"parents":[2147483647,0,0,1,1,2,2,4,4,5,5],"right_children":[2,4,6,-1,8,10,-1,-1,-1,-1,-1],"split_conditions":[4E0,3.333E1,5.71E-1,-3.7874223E-3,3E0,1.765E1,3.863442E-3,-2.9994323E-4,-1.268226E-3,9.012376E-4,1.14804505E-4],"split_indices":[37,24,3,0,19,41,0,0,0,0,0],"split_type":[0,0,0,0,0,0,0,0,0,0,0],"sum_hessian":[2E1,1E1,1E1,1E0,9E0,9E0,1E0,7E0,2E0,6E0,3E0],"tree_param":{"num_deleted":"0","num_feature":"48","num_nodes":"11","size_leaf_vector":"1"}},{"base_weights":[2.8405586E-4,-8.898424E-3,1.631789E-2,-3.598051E-3,-4.0474557E-3,8.162533E-3,3.6702694E-3,-1.5551448E-4,-1.1836778E-3,2.1343828E-4,1.215005E-3],"categories":[],"categories_nodes":[],"categories_segments":[],"categories_sizes":[],"default_left":[1,0,0,0,0,0,0,0,0,0,0],"id":42,"left_children":[1,3,5,-1,7,9,-1,-1,-1,-1,-1],"loss_changes":[3.2370407E-3,1.6936111E-3,1.030376E-3,0E0,2.3396644E-4,1.4232859E-4,0E0,0E0,0E0,0E0,0E0],"parents":[2147483647,0,0,1,1,2,2,4,4,5,5],"right_children":[2,4,6,-1,8,10,-1,-1,-1,-1,-1],"split_conditions":[5.56E-1,3.333E1,5.71E-1,-3.598051E-3,3E0,9E0,3.6702694E-3,-1.5551448E-4,-1.1836778E-3,2.1343828E-4,1.215005E-3],"split_indices":[32,24,3,0,19,2,0,0,0,0,0],"split_type":[0,0,0,0,0,0,0,0,0,0,0],"sum_hessian":[2E1,1.3E1,7E0,1E0,1.2E1,6E0,1E0,1E1,2E0,3E0,3E0],"tree_param":{"num_deleted":"0","num_feature":"48","num_nodes":"11","size_leaf_vector":"1"}},{"base_weights":[2.633546E-4,-7.550444E-3,1.6969588E-2,-3.4181476E-3,-3.2066938E-3,8.175324E-3,3.4867586E-3,-7.3458767E-4,8.15928E-5,1.1238813E-3,1.3655623E-4],"categories":[],"categories_nodes":[],"categories_segments":[],"categories_sizes":[],"default_left":[0,0,0,0,1,0,0,0,0,0,0],"id":43,"left_children":[1,3,5,-1,7,9,-1,-1,-1,-1,-1],"loss_changes":[2.8694498E-3,1.6255688E-3,8.167443E-4,0E0,2.3909885E-4,1.0982252E-4,0E0,0E0,0E0,0E0,0E0],"parents":[2147483647,0,0,1,1,2,2,4,4,5,5],"right_children":[2,4,6,-1,8,10,-1,-1,-1,-1,-1],"split_conditions":[5E0,3.333E1,5.71E-1,-3.4181476E-3,2E-1,2E0,3.4867586E-3,-7.3458767E-4,8.15928E-5,1.1238813E-3,1.3655623E-4],"split_indices":[4,24,3,0,33,6,0,0,0,0,0],"split_type":[0,0,0,0,0,0,0,0,0,0,0],"sum_hessian":[2E1,1.4E1,6E0,1E0,1.3E1,5E0,1E0,6E0,7E0,3E0,2E0],"tree_param":{"num_deleted":"0","num_feature":"48","num_nodes":"11","size_leaf_vector":"1"}},{"base_weights":[2.6921005E-4,-8.674977E-3,1.3158679E-2,-3.2472403E-3,-3.9858245E-3,6.522462E-3,3.3124208E-3,-1.6156107E-4,-1.055793E-3,9.179592E-4,1.5704334E-4],"categories":[],"categories_nodes":[],"categories_segments":[],"categories_sizes":[],"default_left":[0,0,0,0,0,0,0,0,0,0,0],"id":44,"left_children":[1,3,5,-1,7,9,-1,-1,-1,-1,-1],"loss_changes":[2.5351534E-3,1.3212374E-3,9.764087E-4,0E0,1.6987005E-4,9.084956E-5,0E0,0E0,0E0,0E0,0E0],"parents":[2147483647,0,0,1,1,2,2,4,4,5,5],"right_children":[2,4,6,-1,8,10,-1,-1,-1,-1,-1],"split_conditions":[4.55E-1,3.333E1,5.71E-1,-3.2472403E-3,3E0,2.5E0,3.3124208E-3,-1.6156107E-4,-1.055793E-3,9.179592E-4,1.5704334E-4],"split_indices":[3,24,3,0,19,26,0,0,0,0,0],"split_type":[0,0,0,0,0,0,0,0,0,0,0],"sum_hessian":[2E1,1.2E1,8E0,1E0,1.1E1,7E0,1E0,9E0,2E0,4E0,3E0],"tree_param":{"num_deleted":"0","num_feature":"48","num_nodes":"11","size_leaf_vector":"1"}},{"base_weights":[2.3863713E-4,-9.971901E-3,1.0427481E-2,-3.0848787E-3,-4.7993334E-3,5.1766336E-3,3.1467974E-3,-2.303891E-4,-9.854068E-4,6.420523E-4,1.3405085E-5],"categories":[],"categories_nodes":[],"categories_segments":[],"categories_sizes":[],"default_left":[0,0,0,0,0,0,0,0,0,0,0],"id":45,"left_children":[1,3,5,-1,7,9,-1,-1,-1,-1,-1],"loss_changes":[2.2886866E-3,1.0398044E-3,1.0523862E-3,0E0,1.03435275E-4,6.186345E-5,0E0,0E0,0E0,0E0,0E0],"parents":[2147483647,0,0,1,1,2,2,4,4,5,5],"right_children":[2,4,6,-1,8,10,-1,-1,-1,-1,-1],"split_conditions":[4E0,3.333E1,5.71E-1,-3.0848787E-3,3E0,6.471E1,3.1467974E-3,-2.303891E-4,-9.854068E-4,6.420523E-4,1.3405085E-5],"split_indices":[37,24,3,0,19,24,0,0,0,0,0],"split_type":[0,0,0,0,0,0,0,0,0,0,0],"sum_hessian":[2E1,1E1,1E1,1E0,9E0,9E0,1E0,7E0,2E0,7E0,2E0],"tree_param":{"num_deleted":"0","num_feature":"48","num_nodes":"11","size_leaf_vector":"1"}},{"base_weights":[1.9103715E-4,-1.7522376E-2,5.389627E-3,-7.249795E-3,-2.9306354E-3,1.9896552E-3,2.989459E-3,-8.4183615E-4,-1.8720479E-4,3.5708974E-4,-6.052693E-4],"categories":[],"categories_nodes":[],"categories_segments":[],"categories_sizes":[],"default_left":[0,0,0,0,0,0,0,0,0,0,0],"id":46,"left_children":[1,3,5,7,-1,9,-1,-1,-1,-1,-1],"loss_changes":[2.0282194E-3,3.9279426E-4,1.3568953E-3,9.377443E-6,0E0,2.2508395E-4,0E0,0E0,0E0,0E0,0E0],"parents":[2147483647,0,0,1,1,2,2,3,3,5,5],"right_children":[2,4,6,8,-1,10,-1,-1,-1,-1,-1],"split_conditions":[1.67E-1,1E-1,5.71E-1,3E0,-2.9306354E-3,5.556E1,2.989459E-3,-8.4183615E-4,-1.8720479E-4,3.5708974E-4,-6.052693E-4],"split_indices":[3,3,3,12,0,31,0,0,0,0,0],"split_type":[0,0,0,0,0,0,0,0,0,0,0],"sum_hessian":[2E1,4E0,1.6E1,3E0,1E0,1.5E1,1E0,2E0,1E0,1.3E1,2E0],"tree_param":{"num_deleted":"0","num_feature":"48","num_nodes":"11","size_leaf_vector":"1"}},{"base_weights":[1.13938535E-4,-6.137963E-3,1.3494594E-2,-2.7841032E-3,-2.599099E-3,6.2770643E-3,2.8399886E-3,-1.897216E-5,-6.8980333E-4,8.958131E-4,6.099542E-5],"categories":[],"categories_nodes":[],"categories_segments":[],"categories_sizes":[],"default_left":[0,0,0,0,0,0,0,0,0,0,0],"id":47,"left_children":[1,3,5,-1,7,9,-1,-1,-1,-1,-1],"loss_changes":[1.8395747E-3,1.0797016E-3,5.7478773E-4,0E0,1.4369987E-4,8.569936E-5,0E0,0E0,0E0,0E0,0E0],"parents":[2147483647,0,0,1,1,2,2,4,4,5,5],"right_children":[2,4,6,-1,8,10,-1,-1,-1,-1,-1],"split_conditions":[5E0,3.333E1,5.71E-1,-2.7841032E-3,9E0,2E0,2.8399886E-3,-1.897216E-5,-6.8980333E-4,8.958131E-4,6.099542E-5],"split_indices":[4,24,3,0,34,6,0,0,0,0,0],"split_type":[0,0,0,0,0,0,0,0,0,0,0],"sum_hessian":[2E1,1.4E1,6E0,1E0,1.3E1,5E0,1E0,9E0,4E0,3E0,2E0],"tree_param":{"num_deleted":"0","num_feature":"48","num_nodes":"11","size_leaf_vector":"1"}},{"base_weights":[1.1699966E-4,-6.4020944E-3,1.1510789E-2,-2.6448981E-3,-2.8254895E-3,5.446655E-3,2.6979863E-3,-6.8270625E-4,-2.8845005E-5,1.2454092E-4,8.286238E-4],"categories":[],"categories_nodes":[],"categories_segments":[],"categories_sizes":[],"default_left":[1,0,0,0,1,0,0,0,0,0,0],"id":48,"left_children":[1,3,5,-1,7,9,-1,-1,-1,-1,-1],"loss_changes":[1.6335141E-3,9.290657E-4,6.0350227E-4,0E0,1.3000864E-4,7.318874E-5,0E0,0E0,0E0,0E0,0E0],"parents":[2147483647,0,0,1,1,2,2,4,4,5,5],"right_children":[2,4,6,-1,8,10,-1,-1,-1,-1,-1],"split_conditions":[5.56E-1,3.333E1,5.71E-1,-2.6448981E-3,2.5E1,9E0,2.6979863E-3,-6.8270625E-4,-2.8845005E-5,1.2454092E-4,8.286238E-4],"split_indices":[32,24,3,0,30,2,0,0,0,0,0],"split_type":[0,0,0,0,0,0,0,0,0,0,0],"sum_hessian":[2E1,1.3E1,7E0,1E0,1.2E1,6E0,1E0,4E0,8E0,3E0,3E0],"tree_param":{"num_deleted":"0","num_feature":"48","num_nodes":"11","size_leaf_vector":"1"}},{"base_weights":[1.19332755E-4,-1.49177015E-2,4.5349705E-3,-6.083861E-3,-2.5126531E-3,1.6145445E-3,2.5630891E-3,-7.1657397E-4,-1.4191121E-4,2.9542786E-4,-5.17573E-4],"categories":[],"categories_nodes":[],"categories_segments":[],"categories_sizes":[],"default_left":[0,0,0,0,0,0,0,0,0,0,0],"id":49,"left_children":[1,3,5,7,-1,9,-1,-1,-1,-1,-1],"loss_changes":[1.4620112E-3,2.9804953E-4,1.005972E-3,1.0017786E-5,0E0,1.6084514E-4,0E0,0E0,0E0,0E0,0E0],"parents":[2147483647,0,0,1,1,2,2,3,3,5,5],"right_children":[2,4,6,8,-1,10,-1,-1,-1,-1,-1],"split_conditions":[1.67E-1,1E-1,5.71E-1,3E0,-2.5126531E-3,5.556E1,2.5630891E-3,-7.1657397E-4,-1.4191121E-4,2.9542786E-4,-5.17573E-4],"split_indices":[3,3,3,12,0,31,0,0,0,0,0],"split_type":[0,0,0,0,0,0,0,0,0,0,0],"sum_hessian":[2E1,4E0,1.6E1,3E0,1E0,1.5E1,1E0,2E0,1E0,1.3E1,2E0],"tree_param":{"num_deleted":"0","num_feature":"48","num_nodes":"11","size_leaf_vector":"1"}},{"base_weights":[5.8355785E-5,-6.407224E-3,9.391043E-3,-2.38702E-3,-2.962793E-3,4.4775903E-3,2.4349333E-3,-5.6567416E-5,-6.2056247E-4,6.867242E-4,3.7112834E-5],"categories":[],"categories_nodes":[],"categories_segments":[],"categories_sizes":[],"default_left":[0,0,0,0,0,0,0,0,0,0,0],"id":50,"left_children":[1,3,5,-1,7,9,-1,-1,-1,-1,-1],"loss_changes":[1.3273365E-3,7.112278E-4,5.5244524E-4,0E0,8.977107E-5,7.595547E-5,0E0,0E0,0E0,0E0,0E0],"parents":[2147483647,0,0,1,1,2,2,4,4,5,5],"right_children":[2,4,6,-1,8,10,-1,-1,-1,-1,-1],"split_conditions":[1E0,3.333E1,5.71E-1,-2.38702E-3,5E0,5E1,2.4349333E-3,-5.6567416E-5,-6.2056247E-4,6.867242E-4,3.7112834E-5],"split_indices":[6,24,3,0,0,31,0,0,0,0,0],"split_type":[0,0,0,0,0,0,0,0,0,0,0],"sum_hessian":[2E1,1.2E1,8E0,1E0,1.1E1,7E0,1E0,7E0,4E0,4E0,3E0],"tree_param":{"num_deleted":"0","num_feature":"48","num_nodes":"11","size_leaf_vector":"1"}},{"base_weights":[5.7024616E-5,-1.3476014E-2,4.033976E-3,-5.506672E-3,-2.2676692E-3,1.3946183E-3,2.3131848E-3,-6.462316E-4,-1.3198704E-4,-9.290278E-5,4.5148816E-4],"categories":[],"categories_nodes":[],"categories_segments":[],"categories_sizes":[],"default_left":[0,0,0,0,0,0,0,0,0,0,0],"id":51,"left_children":[1,3,5,7,-1,9,-1,-1,-1,-1,-1],"loss_changes":[1.1845868E-3,2.4174352E-4,8.2464376E-4,7.474948E-6,0E0,1.2020065E-4,0E0,0E0,0E0,0E0,0E0],"parents":[2147483647,0,0,1,1,2,2,3,3,5,5],"right_children":[2,4,6,8,-1,10,-1,-1,-1,-1,-1],"split_conditions":[1.67E-1,1E-1,5.71E-1,3E0,-2.2676692E-3,5.56E-1,2.3131848E-3,-6.462316E-4,-1.3198704E-4,-9.290278E-5,4.5148816E-4],"split_indices":[3,3,3,12,0,32,0,0,0,0,0],"split_type":[0,0,0,0,0,0,0,0,0,0,0],"sum_hessian":[2E1,4E0,1.6E1,3E0,1E0,1.5E1,1E0,2E0,1E0,9E0,6E0],"tree_param":{"num_deleted":"0","num_feature":"48","num_nodes":"11","size_leaf_vector":"1"}},{"base_weights":[3.3527613E-5,-5.7866275E-3,8.436693E-3,-2.1542863E-3,-2.6783694E-3,3.99746E-3,2.197528E-3,-5.6494027E-5,-5.5241823E-4,6.0655596E-4,4.129708E-5],"categories":[],"categories_nodes":[],"categories_segments":[],"categories_sizes":[],"default_left":[0,0,0,0,0,0,0,0,0,0,0],"id":52,"left_children":[1,3,5,-1,7,9,-1,-1,-1,-1,-1],"loss_changes":[1.0758822E-3,5.789681E-4,4.5306317E-4,0E0,6.9052265E-5,5.6799734E-5,0E0,0E0,0E0,0E0,0E0],"parents":[2147483647,0,0,1,1,2,2,4,4,5,5],"right_children":[2,4,6,-1,8,10,-1,-1,-1,-1,-1],"split_conditions":[1E0,3.333E1,5.71E-1,-2.1542863E-3,5E0,5E1,2.197528E-3,-5.6494027E-5,-5.5241823E-4,6.0655596E-4,4.129708E-5],"split_indices":[6,24,3,0,0,31,0,0,0,0,0],"split_type":[0,0,0,0,0,0,0,0,0,0,0],"sum_hessian":[2E1,1.2E1,8E0,1E0,1.1E1,7E0,1E0,7E0,4E0,4E0,3E0],"tree_param":{"num_deleted":"0","num_feature":"48","num_nodes":"11","size_leaf_vector":"1"}},{"base_weights":[3.4098113E-5,-1.2173647E-2,3.6226055E-3,-4.9842E-3,-2.0465718E-3,1.2394525E-3,2.0876527E-3,-5.82852E-4,-1.2256205E-4,2.2708264E-4,-3.986776E-4],"categories":[],"categories_nodes":[],"categories_segments":[],"categories_sizes":[],"default_left":[0,0,0,0,0,0,0,0,0,0,0],"id":53,"left_children":[1,3,5,7,-1,9,-1,-1,-1,-1,-1],"loss_changes":[9.6405955E-4,1.9607175E-4,6.73143E-4,5.550217E-6,0E0,9.529638E-5,0E0,0E0,0E0,0E0,0E0],"parents":[2147483647,0,0,1,1,2,2,3,3,5,5],"right_children":[2,4,6,8,-1,10,-1,-1,-1,-1,-1],"split_conditions":[1.67E-1,1E-1,5.71E-1,3E0,-2.0465718E-3,5.556E1,2.0876527E-3,-5.82852E-4,-1.2256205E-4,2.2708264E-4,-3.986776E-4],"split_indices":[3,3,3,12,0,31,0,0,0,0,0],"split_type":[0,0,0,0,0,0,0,0,0,0,0],"sum_hessian":[2E1,4E0,1.6E1,3E0,1E0,1.5E1,1E0,2E0,1E0,1.3E1,2E0],"tree_param":{"num_deleted":"0","num_feature":"48","num_nodes":"11","size_leaf_vector":"1"}},{"base_weights":[-9.119511E-6,-4.297594E-3,9.181772E-3,-1.9442424E-3,-1.8270761E-3,4.101157E-3,1.983273E-3,-6.233801E-5,-6.0328346E-4,5.964339E-4,2.4986268E-5],"categories":[],"categories_nodes":[],"categories_segments":[],"categories_sizes":[],"default_left":[0,0,0,0,0,0,0,0,0,0,0],"id":54,"left_children":[1,3,5,-1,7,9,-1,-1,-1,-1,-1],"loss_changes":[8.671725E-4,5.257109E-4,2.974568E-4,0E0,6.711361E-5,4.1563697E-5,0E0,0E0,0E0,0E0,0E0],"parents":[2147483647,0,0,1,1,2,2,4,4,5,5],"right_children":[2,4,6,-1,8,10,-1,-1,-1,-1,-1],"split_conditions":[5E0,3.333E1,5.71E-1,-1.9442424E-3,3E0,2E0,1.983273E-3,-6.233801E-5,-6.0328346E-4,5.964339E-4,2.4986268E-5],"split_indices":[4,24,3,0,19,6,0,0,0,0,0],"split_type":[0,0,0,0,0,0,0,0,0,0,0],"sum_hessian":[2E1,1.4E1,6E0,1E0,1.3E1,5E0,1E0,1.1E1,2E0,3E0,2E0],"tree_param":{"num_deleted":"0","num_feature":"48","num_nodes":"11","size_leaf_vector":"1"}},{"base_weights":[-8.448249E-6,-1.8929795E-3,1.8841088E-3,-1.8470302E-3,-4.83676E-5,-2.2537063E-4,3.2656864E-4],"categories":[],"categories_nodes":[],"categories_segments":[],"categories_sizes":[],"default_left":[0,0,0,0,0,0,0],"id":55,"left_children":[1,3,-1,-1,5,-1,-1],"loss_changes":[7.816391E-4,6.106812E-4,0E0,0E0,1.4622351E-4,0E0,0E0],"parents":[2147483647,0,0,1,1,4,4],"right_children":[2,4,-1,-1,6,-1,-1],"split_conditions":[5.71E-1,3.333E1,1.8841088E-3,-1.8470302E-3,1E0,-2.2537063E-4,3.2656864E-4],"split_indices":[3,24,0,0,6,0,0],"split_type":[0,0,0,0,0,0,0],"sum_hessian":[2E1,1.9E1,1E0,1E0,1.8E1,1.1E1,7E0],"tree_param":{"num_deleted":"0","num_feature":"48","num_nodes":"7","size_leaf_vector":"1"}},{"base_weights":[-1.0033449E-6,-1.0467607E-2,3.0774684E-3,-4.3111145E-3,-1.7546788E-3,1.0324307E-3,1.7899036E-3,-5.0678256E-4,-1.0204911E-4,-7.458508E-5,3.4253427E-4],"categories":[],"categories_nodes":[],"categories_segments":[],"categories_sizes":[],"default_left":[0,0,0,0,0,0,0,0,0,0,0],"id":56,"left_children":[1,3,5,7,-1,9,-1,-1,-1,-1,-1],"loss_changes":[7.088577E-4,1.4226843E-4,4.9680186E-4,4.788526E-6,0E0,7.063914E-5,0E0,0E0,0E0,0E0,0E0],"parents":[2147483647,0,0,1,1,2,2,3,3,5,5],"right_children":[2,4,6,8,-1,10,-1,-1,-1,-1,-1],"split_conditions":[1.67E-1,1E-1,5.71E-1,3E0,-1.7546788E-3,5.56E-1,1.7899036E-3,-5.0678256E-4,-1.0204911E-4,-7.458508E-5,3.4253427E-4],"split_indices":[3,3,3,12,0,32,0,0,0,0,0],"split_type":[0,0,0,0,0,0,0,0,0,0,0],"sum_hessian":[2E1,4E0,1.6E1,3E0,1E0,1.5E1,1E0,2E0,1E0,9E0,6E0],"tree_param":{"num_deleted":"0","num_feature":"48","num_nodes":"11","size_leaf_vector":"1"}},{"base_weights":[-1.5453214E-5,-1.7166331E-3,1.7004072E-3,-1.6669453E-3,-5.2303076E-5,-2.008694E-4,2.8888212E-4],"categories":[],"categories_nodes":[],"categories_segments":[],"categories_sizes":[],"default_left":[0,0,0,0,0,0,0],"id":57,"left_children":[1,3,-1,-1,5,-1,-1],"loss_changes":[6.372086E-4,4.9685664E-4,0E0,0E0,1.15128525E-4,0E0,0E0],"parents":[2147483647,0,0,1,1,4,4],"right_children":[2,4,-1,-1,6,-1,-1],"split_conditions":[5.71E-1,3.333E1,1.7004072E-3,-1.6669453E-3,1E0,-2.008694E-4,2.8888212E-4],"split_indices":[3,24,0,0,6,0,0],"split_type":[0,0,0,0,0,0,0],"sum_hessian":[2E1,1.9E1,1E0,1E0,1.8E1,1.1E1,7E0],"tree_param":{"num_deleted":"0","num_feature":"48","num_nodes":"7","size_leaf_vector":"1"}},{"base_weights":[-8.120423E-6,-9.439647E-3,2.7663356E-3,-3.8815662E-3,-1.5835986E-3,9.199977E-4,1.6153873E-3,-4.5960644E-4,-8.690357E-5,1.7296927E-4,-3.165245E-4],"categories":[],"categories_nodes":[],"categories_segments":[],"categories_sizes":[],"default_left":[0,0,0,0,0,0,0,0,0,0,0],"id":58,"left_children":[1,3,5,7,-1,9,-1,-1,-1,-1,-1],"loss_changes":[5.756277E-4,1.1628843E-4,4.0534307E-4,4.6156492E-6,0E0,5.839971E-5,0E0,0E0,0E0,0E0,0E0],"parents":[2147483647,0,0,1,1,2,2,3,3,5,5],"right_children":[2,4,6,8,-1,10,-1,-1,-1,-1,-1],"split_conditions":[1.67E-1,1E-1,5.71E-1,3E0,-1.5835986E-3,5.556E1,1.6153873E-3,-4.5960644E-4,-8.690357E-5,1.7296927E-4,-3.165245E-4],"split_indices":[3,3,3,12,0,31,0,0,0,0,0],"split_type":[0,0,0,0,0,0,0,0,0,0,0],"sum_hessian":[2E1,4E0,1.6E1,3E0,1E0,1.5E1,1E0,2E0,1E0,1.3E1,2E0],"tree_param":{"num_deleted":"0","num_feature":"48","num_nodes":"11","size_leaf_vector":"1"}},{"base_weights":[-3.8659287E-5,-3.7232062E-3,6.4141303E-3,-1.5044183E-3,-1.6951171E-3,1.3037563E-3,2.0333927E-3,-4.0666162E-4,-1.8927123E-5,3.132999E-4,-1.1054674E-5],"categories":[],"categories_nodes":[],"categories_segments":[],"categories_sizes":[],"default_left":[1,0,0,0,1,0,0,0,0,0,0],"id":59,"left_children":[1,3,5,-1,7,-1,9,-1,-1,-1,-1],"loss_changes":[5.231689E-4,2.959376E-4,2.0561364E-4,0E0,4.5654768E-5,0E0,1.4491281E-5,0E0,0E0,0E0,0E0],"parents":[2147483647,0,0,1,1,2,2,4,4,6,6],"right_children":[2,4,6,-1,8,-1,10,-1,-1,-1,-1],"split_conditions":[5.56E-1,3.333E1,5.417E1,-1.5044183E-3,2.5E1,1.3037563E-3,2.5E0,-4.0666162E-4,-1.8927123E-5,3.132999E-4,-1.1054674E-5],"split_indices":[32,24,24,0,30,0,26,0,0,0,0],"split_type":[0,0,0,0,0,0,0,0,0,0,0],"sum_hessian":[2E1,1.3E1,7E0,1E0,1.2E1,2E0,5E0,4E0,8E0,3E0,2E0],"tree_param":{"num_deleted":"0","num_feature":"48","num_nodes":"11","size_leaf_vector":"1"}},{"base_weights":[-5.0208397E-5,-1.5221462E-3,1.4694274E-3,-1.4291973E-3,-9.7841024E-5,-1.7321334E-4,2.3658275E-4],"categories":[],"categories_nodes":[],"categories_segments":[],"categories_sizes":[],"default_left":[0,0,0,0,0,0,0],"id":60,"left_children":[1,3,-1,-1,5,-1,-1],"loss_changes":[4.7812896E-4,3.6236426E-4,0E0,0E0,8.0598664E-5,0E0,0E0],"parents":[2147483647,0,0,1,1,4,4],"right_children":[2,4,-1,-1,6,-1,-1],"split_conditions":[5.71E-1,3.333E1,1.4694274E-3,-1.4291973E-3,4.55E-1,-1.7321334E-4,2.3658275E-4],"split_indices":[3,24,0,0,3,0,0],"split_type":[0,0,0,0,0,0,0],"sum_hessian":[2E1,1.9E1,1E0,1E0,1.8E1,1.1E1,7E0],"tree_param":{"num_deleted":"0","num_feature":"48","num_nodes":"7","size_leaf_vector":"1"}},{"base_weights":[-4.0268613E-5,-1.4382408E-3,1.3959587E-3,-1.3577372E-3,-8.474055E-5,-1.6328371E-4,2.2479966E-4],"categories":[],"categories_nodes":[],"categories_segments":[],"categories_sizes":[],"default_left":[0,0,0,0,0,0,0],"id":61,"left_children":[1,3,-1,-1,5,-1,-1],"loss_changes":[4.3107677E-4,3.2745578E-4,0E0,0E0,7.2285344E-5,0E0,0E0],"parents":[2147483647,0,0,1,1,4,4],"right_children":[2,4,-1,-1,6,-1,-1],"split_conditions":[5.71E-1,3.333E1,1.3959587E-3,-1.3577372E-3,1E0,-1.6328371E-4,2.2479966E-4],"split_indices":[3,24,0,0,6,0,0],"split_type":[0,0,0,0,0,0,0],"sum_hessian":[2E1,1.9E1,1E0,1E0,1.8E1,1.1E1,7E0],"tree_param":{"num_deleted":"0","num_feature":"48","num_nodes":"7","size_leaf_vector":"1"}},{"base_weights":[-3.1503892E-5,-1.3592407E-3,1.3261617E-3,-1.2898505E-3,-7.3042356E-5,-1.3986712E-4,2.3992744E-4],"categories":[],"categories_nodes":[],"categories_segments":[],"categories_sizes":[],"default_left":[0,0,0,0,1,0,0],"id":62,"left_children":[1,3,-1,-1,5,-1,-1],"loss_changes":[3.886708E-4,2.958935E-4,0E0,0E0,6.562591E-5,0E0,0E0],"parents":[2147483647,0,0,1,1,4,4],"right_children":[2,4,-1,-1,6,-1,-1],"split_conditions":[5.71E-1,3.333E1,1.3261617E-3,-1.2898505E-3,5.56E-1,-1.3986712E-4,2.3992744E-4],"split_indices":[3,24,0,0,32,0,0],"split_type":[0,0,0,0,0,0,0],"sum_hessian":[2E1,1.9E1,1E0,1E0,1.8E1,1.2E1,6E0],"tree_param":{"num_deleted":"0","num_feature":"48","num_nodes":"7","size_leaf_vector":"1"}},{"base_weights":[-2.1864971E-5,-1.2828097E-3,1.2598515E-3,-1.2253582E-3,-6.0475188E-5,-1.4499003E-4,2.031222E-4],"categories":[],"categories_nodes":[],"categories_segments":[],"categories_sizes":[],"default_left":[0,0,0,0,0,0,0],"id":63,"left_children":[1,3,-1,-1,5,-1,-1],"loss_changes":[3.503471E-4,2.6745806E-4,0E0,0E0,5.8163943E-5,0E0,0E0],"parents":[2147483647,0,0,1,1,4,4],"right_children":[2,4,-1,-1,6,-1,-1],"split_conditions":[5.71E-1,3.333E1,1.2598515E-3,-1.2253582E-3,1E0,-1.4499003E-4,2.031222E-4],"split_indices":[3,24,0,0,6,0,0],"split_type":[0,0,0,0,0,0,0],"sum_hessian":[2E1,1.9E1,1E0,1E0,1.8E1,1.1E1,7E0],"tree_param":{"num_deleted":"0","num_feature":"48","num_nodes":"7","size_leaf_vector":"1"}},{"base_weights":[-1.5265885E-5,-6.2336773E-3,2.3175925E-3,-1.8439889E-4,-1.0008704E-3,8.762836E-4,1.1968613E-3,-5.233049E-5,3.0628842E-4],"categories":[],"categories_nodes":[],"categories_segments":[],"categories_sizes":[],"default_left":[0,0,0,0,0,0,0,0,0],"id":64,"left_children":[1,3,5,-1,-1,7,-1,-1,-1],"loss_changes":[3.1908727E-4,8.097118E-5,2.120737E-4,0E0,0E0,4.7507936E-5,0E0,0E0,0E0],"parents":[2147483647,0,0,1,1,2,2,5,5],"right_children":[2,4,6,-1,-1,8,-1,-1,-1],"split_conditions":[2E-1,2E0,5.71E-1,-1.8439889E-4,-1.0008704E-3,3.333E1,1.1968613E-3,-5.233049E-5,3.0628842E-4],"split_indices":[3,9,3,0,0,30,0,0,0],"split_type":[0,0,0,0,0,0,0,0,0],"sum_hessian":[2E1,5E0,1.5E1,3E0,2E0,1.4E1,1E0,9E0,5E0],"tree_param":{"num_deleted":"0","num_feature":"48","num_nodes":"9","size_leaf_vector":"1"}},{"base_weights":[-1.0870751E-6,1.9548219E-3,-6.6509605E-3,6.557256E-4,1.1370182E-3,-1.1140466E-3,-2.7434677E-3,1.8532466E-4,-1.649017E-4,-3.2378436E-4,-6.301701E-5],"categories":[],"categories_nodes":[],"categories_segments":[],"categories_sizes":[],"default_left":[0,0,0,0,0,0,0,0,0,0,0],"id":65,"left_children":[1,3,5,7,-1,-1,9,-1,-1,-1,-1],"loss_changes":[2.8613894E-4,2.0047909E-4,5.7150042E-5,4.721568E-5,0E0,0E0,2.1386604E-6,0E0,0E0,0E0,0E0],"parents":[2147483647,0,0,1,1,2,2,3,3,6,6],"right_children":[2,4,6,8,-1,-1,10,-1,-1,-1,-1],"split_conditions":[5.556E1,5.71E-1,3.333E1,1E0,1.1370182E-3,-1.1140466E-3,2.22E-1,1.8532466E-4,-1.649017E-4,-3.2378436E-4,-6.301701E-5],"split_indices":[31,3,24,18,0,0,3,0,0,0,0],"split_type":[0,0,0,0,0,0,0,0,0,0,0],"sum_hessian":[2E1,1.6E1,4E0,1.5E1,1E0,1E0,3E0,1E1,5E0,2E0,1E0],"tree_param":{"num_deleted":"0","num_feature":"48","num_nodes":"11","size_leaf_vector":"1"}},{"base_weights":[-1.7342114E-5,-1.0983765E-3,1.0801674E-3,-1.0583446E-3,-4.2138916E-5,2.809048E-4,-7.523019E-5],"categories":[],"categories_nodes":[],"categories_segments":[],"categories_sizes":[],"default_left":[0,0,0,0,0,0,0],"id":66,"left_children":[1,3,-1,-1,5,-1,-1],"loss_changes":[2.5747457E-4,1.9992374E-4,0E0,0E0,4.0584586E-5,0E0,0E0],"parents":[2147483647,0,0,1,1,4,4],"right_children":[2,4,-1,-1,6,-1,-1],"split_conditions":[5.71E-1,3.333E1,1.0801674E-3,-1.0583446E-3,6E-1,2.809048E-4,-7.523019E-5],"split_indices":[3,24,0,0,26,0,0],"split_type":[0,0,0,0,0,0,0],"sum_hessian":[2E1,1.9E1,1E0,1E0,1.8E1,3E0,1.5E1],"tree_param":{"num_deleted":"0","num_feature":"48","num_nodes":"7","size_leaf_vector":"1"}},{"base_weights":[-4.7768867E-6,1.7674057E-3,-6.029242E-3,5.9516914E-4,1.0261595E-3,-1.0054276E-3,-2.5094151E-3,1.6560094E-4,-1.4488996E-4,-2.9718477E-4,-5.610585E-5],"categories":[],"categories_nodes":[],"categories_segments":[],"categories_sizes":[],"default_left":[0,0,0,0,0,0,0,0,0,0,0],"id":67,"left_children":[1,3,5,7,-1,-1,9,-1,-1,-1,-1],"loss_changes":[2.3486161E-4,1.6316501E-4,4.560675E-5,3.7094276E-5,0E0,0E0,1.9365561E-6,0E0,0E0,0E0,0E0],"parents":[2147483647,0,0,1,1,2,2,3,3,6,6],"right_children":[2,4,6,8,-1,-1,10,-1,-1,-1,-1],"split_conditions":[5.556E1,5.71E-1,3.333E1,1E0,1.0261595E-3,-1.0054276E-3,2.22E-1,1.6560094E-4,-1.4488996E-4,-2.9718477E-4,-5.610585E-5],"split_indices":[31,3,24,18,0,0,3,0,0,0,0],"split_type":[0,0,0,0,0,0,0,0,0,0,0],"sum_hessian":[2E1,1.6E1,4E0,1.5E1,1E0,1E0,3E0,1E1,5E0,2E0,1E0],"tree_param":{"num_deleted":"0","num_feature":"48","num_nodes":"11","size_leaf_vector":"1"}},{"base_weights":[-1.9138768E-5,-5.750346E-3,1.6676363E-3,-2.4121553E-3,-9.551555E-4,5.5329874E-4,9.7485184E-4,-2.848804E-4,-5.5110457E-5,1.0751401E-4,-2.0663936E-4],"categories":[],"categories_nodes":[],"categories_segments":[],"categories_sizes":[],"default_left":[0,0,0,0,0,0,0,0,0,0,0],"id":68,"left_children":[1,3,5,7,-1,9,-1,-1,-1,-1,-1],"loss_changes":[2.126019E-4,4.0405954E-5,1.4768828E-4,1.6805097E-6,0E0,2.4094683E-5,0E0,0E0,0E0,0E0,0E0],"parents":[2147483647,0,0,1,1,2,2,3,3,5,5],"right_children":[2,4,6,8,-1,10,-1,-1,-1,-1,-1],"split_conditions":[1.67E-1,1E-1,5.71E-1,3E0,-9.551555E-4,5.556E1,9.7485184E-4,-2.848804E-4,-5.5110457E-5,1.0751401E-4,-2.0663936E-4],"split_indices":[3,3,3,12,0,31,0,0,0,0,0],"split_type":[0,0,0,0,0,0,0,0,0,0,0],"sum_hessian":[2E1,4E0,1.6E1,3E0,1E0,1.5E1,1E0,2E0,1E0,1.3E1,2E0],"tree_param":{"num_deleted":"0","num_feature":"48","num_nodes":"11","size_leaf_vector":"1"}},{"base_weights":[-3.7204652E-5,-9.651721E-4,9.2610717E-4,-9.073973E-4,-6.081556E-5,-1.0703653E-4,1.4611111E-4],"categories":[],"categories_nodes":[],"categories_segments":[],"categories_sizes":[],"default_left":[0,0,0,0,0,0,0],"id":69,"left_children":[1,3,-1,-1,5,-1,-1],"loss_changes":[1.9013695E-4,1.4611309E-4,0E0,0E0,3.0756673E-5,0E0,0E0],"parents":[2147483647,0,0,1,1,4,4],"right_children":[2,4,-1,-1,6,-1,-1],"split_conditions":[5.71E-1,3.333E1,9.2610717E-4,-9.073973E-4,1E0,-1.0703653E-4,1.4611111E-4],"split_indices":[3,24,0,0,6,0,0],"split_type":[0,0,0,0,0,0,0],"sum_hessian":[2E1,1.9E1,1E0,1E0,1.8E1,1.1E1,7E0],"tree_param":{"num_deleted":"0","num_feature":"48","num_nodes":"7","size_leaf_vector":"1"}},{"base_weights":[-3.073187E-5,-4.6117655E-3,1.6890764E-3,-1.3658927E-4,-7.4023404E-4,6.2861445E-4,8.7980035E-4,-4.564047E-5,2.3322106E-4],"categories":[],"categories_nodes":[],"categories_segments":[],"categories_sizes":[],"default_left":[0,0,0,0,0,0,0,0,0],"id":70,"left_children":[1,3,5,-1,-1,7,-1,-1,-1],"loss_changes":[1.732381E-4,4.4236323E-5,1.15089395E-4,0E0,0E0,2.8790946E-5,0E0,0E0,0E0],"parents":[2147483647,0,0,1,1,2,2,5,5],"right_children":[2,4,6,-1,-1,8,-1,-1,-1],"split_conditions":[2E-1,2E0,5.71E-1,-1.3658927E-4,-7.4023404E-4,3.333E1,8.7980035E-4,-4.564047E-5,2.3322106E-4],"split_indices":[3,9,3,0,0,30,0,0,0],"split_type":[0,0,0,0,0,0,0,0,0],"sum_hessian":[2E1,5E0,1.5E1,3E0,2E0,1.4E1,1E0,9E0,5E0],"tree_param":{"num_deleted":"0","num_feature":"48","num_nodes":"9","size_leaf_vector":"1"}},{"base_weights":[-1.8568266E-5,1.4264882E-3,-4.9280464E-3,4.7087856E-4,8.358121E-4,-1.1220376E-4,-7.0913736E-4,1.3277639E-4,-1.17855765E-4],"categories":[],"categories_nodes":[],"categories_segments":[],"categories_sizes":[],"default_left":[0,0,0,0,0,0,0,0,0],"id":71,"left_children":[1,3,5,7,-1,-1,-1,-1,-1],"loss_changes":[1.5601373E-4,1.0867123E-4,3.3211414E-5,2.417889E-5,0E0,0E0,0E0,0E0,0E0],"parents":[2147483647,0,0,1,1,2,2,3,3],"right_children":[2,4,6,8,-1,-1,-1,-1,-1],"split_conditions":[5.556E1,5.71E-1,9E0,1E0,8.358121E-4,-1.1220376E-4,-7.0913736E-4,1.3277639E-4,-1.17855765E-4],"split_indices":[31,3,2,18,0,0,0,0,0],"split_type":[0,0,0,0,0,0,0,0,0],"sum_hessian":[2E1,1.6E1,4E0,1.5E1,1E0,2E0,2E0,1E1,5E0],"tree_param":{"num_deleted":"0","num_feature":"48","num_nodes":"9","size_leaf_vector":"1"}},{"base_weights":[-1.532549E-5,-4.67661E-3,1.3565421E-3,-1.8979683E-4,-7.895589E-4,4.487969E-4,7.940233E-4,2.4953287E-4,-2.1802527E-6],"categories":[],"categories_nodes":[],"categories_segments":[],"categories_sizes":[],"default_left":[0,0,0,0,0,0,0,0,0],"id":72,"left_children":[1,3,5,-1,-1,7,-1,-1,-1],"loss_changes":[1.40632E-4,2.9736366E-5,9.803378E-5,0E0,0E0,1.5463951E-5,0E0,0E0,0E0],"parents":[2147483647,0,0,1,1,2,2,5,5],"right_children":[2,4,6,-1,-1,8,-1,-1,-1],"split_conditions":[1.67E-1,1E-1,5.71E-1,-1.8979683E-4,-7.895589E-4,2E0,7.940233E-4,2.4953287E-4,-2.1802527E-6],"split_indices":[3,3,3,0,0,11,0,0,0],"split_type":[0,0,0,0,0,0,0,0,0],"sum_hessian":[2E1,4E0,1.6E1,3E0,1E0,1.5E1,1E0,2E0,1.3E1],"tree_param":{"num_deleted":"0","num_feature":"48","num_nodes":"9","size_leaf_vector":"1"}},{"base_weights":[-1.0836692E-5,-3.9158165E-3,1.454208E-3,-1.6986548E-4,-7.5008126E-4,5.4539443E-4,7.5432064E-4,-3.7415623E-5,1.9870799E-4],"categories":[],"categories_nodes":[],"categories_segments":[],"categories_sizes":[],"default_left":[0,0,0,0,0,0,0,0,0],"id":73,"left_children":[1,3,5,-1,-1,7,-1,-1,-1],"loss_changes":[1.2583479E-4,3.49498E-5,8.442621E-5,0E0,0E0,2.0629019E-5,0E0,0E0,0E0],"parents":[2147483647,0,0,1,1,2,2,5,5],"right_children":[2,4,6,-1,-1,8,-1,-1,-1],"split_conditions":[2E-1,2E0,5.71E-1,-1.6986548E-4,-7.5008126E-4,3.333E1,7.5432064E-4,-3.7415623E-5,1.9870799E-4],"split_indices":[3,17,3,0,0,30,0,0,0],"split_type":[0,0,0,0,0,0,0,0,0],"sum_hessian":[2E1,5E0,1.5E1,4E0,1E0,1.4E1,1E0,9E0,5E0],"tree_param":{"num_deleted":"0","num_feature":"48","num_nodes":"9","size_leaf_vector":"1"}},{"base_weights":[-9.9553945E-6,1.2241164E-3,-4.2038085E-3,4.0487014E-4,7.1660284E-4,-9.141565E-5,-6.092191E-4,1.1190339E-4,-9.719084E-5],"categories":[],"categories_nodes":[],"categories_segments":[],"categories_sizes":[],"default_left":[0,0,0,0,0,0,0,0,0],"id":74,"left_children":[1,3,5,7,-1,-1,-1,-1,-1],"loss_changes":[1.13831775E-4,7.98528E-5,2.549139E-5,1.6819522E-5,0E0,0E0,0E0,0E0,0E0],"parents":[2147483647,0,0,1,1,2,2,3,3],"right_children":[2,4,6,8,-1,-1,-1,-1,-1],"split_conditions":[5.556E1,5.71E-1,9E0,1E0,7.1660284E-4,-9.141565E-5,-6.092191E-4,1.1190339E-4,-9.719084E-5],"split_indices":[31,3,2,18,0,0,0,0,0],"split_type":[0,0,0,0,0,0,0,0,0],"sum_hessian":[2E1,1.6E1,4E0,1.5E1,1E0,2E0,2E0,1E1,5E0],"tree_param":{"num_deleted":"0","num_feature":"48","num_nodes":"9","size_leaf_vector":"1"}},{"base_weights":[-7.5002513E-6,-4.01569E-3,1.1718203E-3,-1.6090348E-4,-6.8211555E-4,3.94091E-4,6.8077445E-4,-3.5616755E-5,1.4095903E-4],"categories":[],"categories_nodes":[],"categories_segments":[],"categories_sizes":[],"default_left":[0,0,0,0,0,0,0,0,0],"id":75,"left_children":[1,3,5,-1,-1,7,-1,-1,-1],"loss_changes":[1.0397142E-4,2.2783468E-5,7.183192E-5,0E0,0E0,1.2692242E-5,0E0,0E0,0E0],"parents":[2147483647,0,0,1,1,2,2,5,5],"right_children":[2,4,6,-1,-1,8,-1,-1,-1],"split_conditions":[1.67E-1,1E-1,5.71E-1,-1.6090348E-4,-6.8211555E-4,2.222E1,6.8077445E-4,-3.5616755E-5,1.4095903E-4],"split_indices":[3,3,3,0,0,43,0,0,0],"split_type":[0,0,0,0,0,0,0,0,0],"sum_hessian":[2E1,4E0,1.6E1,3E0,1E0,1.5E1,1E0,9E0,6E0],"tree_param":{"num_deleted":"0","num_feature":"48","num_nodes":"9","size_leaf_vector":"1"}},{"base_weights":[-9.444498E-6,-8.25071E-4,5.1593385E-3,-6.4800977E-4,-1.5089744E-4,1.2716651E-4,6.4673426E-4,-1.0034849E-4,1.0402724E-4],"categories":[],"categories_nodes":[],"categories_segments":[],"categories_sizes":[],"default_left":[0,0,0,0,1,0,0,0,0],"id":76,"left_children":[1,3,5,-1,7,-1,-1,-1,-1],"loss_changes":[9.278855E-5,7.14591E-5,7.0309834E-6,0E0,1.9324274E-5,0E0,0E0,0E0,0E0],"parents":[2147483647,0,0,1,1,2,2,4,4],"right_children":[2,4,6,-1,8,-1,-1,-1,-1],"split_conditions":[5.56E-1,3.333E1,4E0,-6.4800977E-4,3.333E1,1.2716651E-4,6.4673426E-4,-1.0034849E-4,1.0402724E-4],"split_indices":[3,24,0,0,30,0,0,0,0],"split_type":[0,0,0,0,0,0,0,0,0],"sum_hessian":[2E1,1.8E1,2E0,1E0,1.7E1,1E0,1E0,1E1,7E0],"tree_param":{"num_deleted":"0","num_feature":"48","num_nodes":"9","size_leaf_vector":"1"}},{"base_weights":[-2.3231619E-6,-3.2401632E-3,1.212012E-3,-1.425761E-4,-6.156087E-4,4.7361452E-4,6.1439874E-4,-2.393365E-5,1.5829304E-4],"categories":[],"categories_nodes":[],"categories_segments":[],"categories_sizes":[],"default_left":[0,0,0,0,0,0,0,0,0],"id":77,"left_children":[1,3,5,-1,-1,7,-1,-1,-1],"loss_changes":[8.64954E-5,2.2966844E-5,5.5358243E-5,0E0,0E0,1.2242172E-5,0E0,0E0,0E0],"parents":[2147483647,0,0,1,1,2,2,5,5],"right_children":[2,4,6,-1,-1,8,-1,-1,-1],"split_conditions":[2E-1,2E0,5.71E-1,-1.425761E-4,-6.156087E-4,3.333E1,6.1439874E-4,-2.393365E-5,1.5829304E-4],"split_indices":[3,17,3,0,0,30,0,0,0],"split_type":[0,0,0,0,0,0,0,0,0],"sum_hessian":[2E1,5E0,1.5E1,4E0,1E0,1.4E1,1E0,9E0,5E0],"tree_param":{"num_deleted":"0","num_feature":"48","num_nodes":"9","size_leaf_vector":"1"}},{"base_weights":[-2.5331974E-6,-7.456243E-4,4.704555E-3,-5.8482884E-4,-1.3723804E-4,1.2200475E-4,5.836785E-4,-8.688895E-5,8.859374E-5],"categories":[],"categories_nodes":[],"categories_segments":[],"categories_sizes":[],"default_left":[0,0,0,0,1,0,0,0,0],"id":78,"left_children":[1,3,5,-1,7,-1,-1,-1,-1],"loss_changes":[7.696153E-5,5.818082E-5,4.7146314E-6,0E0,1.424472E-5,0E0,0E0,0E0,0E0],"parents":[2147483647,0,0,1,1,2,2,4,4],"right_children":[2,4,6,-1,8,-1,-1,-1,-1],"split_conditions":[5.56E-1,3.333E1,4E0,-5.8482884E-4,3.333E1,1.2200475E-4,5.836785E-4,-8.688895E-5,8.859374E-5],"split_indices":[3,24,0,0,30,0,0,0,0],"split_type":[0,0,0,0,0,0,0,0,0],"sum_hessian":[2E1,1.8E1,2E0,1E0,1.7E1,1E0,1E0,1E1,7E0],"tree_param":{"num_deleted":"0","num_feature":"48","num_nodes":"9","size_leaf_vector":"1"}},{"base_weights":[3.5734404E-6,-2.945602E-3,1.1092909E-3,-8.502752E-5,-4.7575036E-4,4.4391552E-4,5.544961E-4,8.5948406E-5,-9.13769E-5],"categories":[],"categories_nodes":[],"categories_segments":[],"categories_sizes":[],"default_left":[0,0,0,0,0,0,0,0,0],"id":79,"left_children":[1,3,5,-1,-1,7,-1,-1,-1],"loss_changes":[7.174757E-5,1.8733972E-5,4.4760665E-5,0E0,0E0,9.248534E-6,0E0,0E0,0E0],"parents":[2147483647,0,0,1,1,2,2,5,5],"right_children":[2,4,6,-1,-1,8,-1,-1,-1],"split_conditions":[2E-1,2E0,5.71E-1,-8.502752E-5,-4.7575036E-4,2E0,5.544961E-4,8.5948406E-5,-9.13769E-5],"split_indices":[3,9,3,0,0,17,0,0,0],"split_type":[0,0,0,0,0,0,0,0,0],"sum_hessian":[2E1,5E0,1.5E1,3E0,2E0,1.4E1,1E0,1.1E1,3E0],"tree_param":{"num_deleted":"0","num_feature":"48","num_nodes":"9","size_leaf_vector":"1"}},{"base_weights":[2.66376E-6,-6.690386E-4,4.255891E-3,-5.3179864E-4,-1.1532009E-4,1.116097E-4,5.267739E-4,-7.530505E-5,7.7597426E-5],"categories":[],"categories_nodes":[],"categories_segments":[],"categories_sizes":[],"default_left":[0,0,0,0,1,0,0,0,0],"id":80,"left_children":[1,3,5,-1,7,-1,-1,-1,-1],"loss_changes":[6.2842315E-5,4.8296686E-5,3.6516794E-6,0E0,1.0815647E-5,0E0,0E0,0E0,0E0],"parents":[2147483647,0,0,1,1,2,2,4,4],"right_children":[2,4,6,-1,8,-1,-1,-1,-1],"split_conditions":[5.56E-1,3.333E1,4E0,-5.3179864E-4,3.333E1,1.116097E-4,5.267739E-4,-7.530505E-5,7.7597426E-5],"split_indices":[3,24,0,0,30,0,0,0,0],"split_type":[0,0,0,0,0,0,0,0,0],"sum_hessian":[2E1,1.8E1,2E0,1E0,1.7E1,1E0,1E0,1E1,7E0],"tree_param":{"num_deleted":"0","num_feature":"48","num_nodes":"9","size_leaf_vector":"1"}},{"base_weights":[7.578305E-6,-2.6566286E-3,1.0061823E-3,-1.1671185E-4,-5.0520897E-4,4.060149E-4,5.0043466E-4,-2.6045906E-5,1.2049079E-4],"categories":[],"categories_nodes":[],"categories_segments":[],"categories_sizes":[],"default_left":[0,0,0,0,0,0,0,0,0],"id":81,"left_children":[1,3,5,-1,-1,7,-1,-1,-1],"loss_changes":[5.8543294E-5,1.5511992E-5,3.636124E-5,0E0,0E0,8.300449E-6,0E0,0E0,0E0],"parents":[2147483647,0,0,1,1,2,2,5,5],"right_children":[2,4,6,-1,-1,8,-1,-1,-1],"split_conditions":[2E-1,2E0,5.71E-1,-1.1671185E-4,-5.0520897E-4,2.222E1,5.0043466E-4,-2.6045906E-5,1.2049079E-4],"split_indices":[3,17,3,0,0,43,0,0,0],"split_type":[0,0,0,0,0,0,0,0,0],"sum_hessian":[2E1,5E0,1.5E1,4E0,1E0,1.4E1,1E0,8E0,6E0],"tree_param":{"num_deleted":"0","num_feature":"48","num_nodes":"9","size_leaf_vector":"1"}},{"base_weights":[5.514849E-6,-6.07318E-4,3.8849514E-3,-4.7994853E-4,-1.0778176E-4,1.0733009E-4,4.754126E-4,-6.844103E-5,6.985553E-5],"categories":[],"categories_nodes":[],"categories_segments":[],"categories_sizes":[],"default_left":[0,0,0,0,1,0,0,0,0],"id":82,"left_children":[1,3,5,-1,7,-1,-1,-1,-1],"loss_changes":[5.228577E-5,3.9271352E-5,2.2288368E-6,0E0,8.847323E-6,0E0,0E0,0E0,0E0],"parents":[2147483647,0,0,1,1,2,2,4,4],"right_children":[2,4,6,-1,8,-1,-1,-1,-1],"split_conditions":[5.56E-1,3.333E1,4E0,-4.7994853E-4,3.333E1,1.0733009E-4,4.754126E-4,-6.844103E-5,6.985553E-5],"split_indices":[3,24,0,0,30,0,0,0,0],"split_type":[0,0,0,0,0,0,0,0,0],"sum_hessian":[2E1,1.8E1,2E0,1E0,1.7E1,1E0,1E0,1E1,7E0],"tree_param":{"num_deleted":"0","num_feature":"48","num_nodes":"9","size_leaf_vector":"1"}},{"base_weights":[9.919916E-6,-2.4151106E-3,9.186864E-4,-1.074326E-4,-4.559517E-4,3.7774246E-4,4.516423E-4,6.12425E-5,-1.4539063E-4],"categories":[],"categories_nodes":[],"categories_segments":[],"categories_sizes":[],"default_left":[0,0,0,0,0,0,0,0,0],"id":83,"left_children":[1,3,5,-1,-1,7,-1,-1,-1],"loss_changes":[4.849825E-5,1.235271E-5,2.9432733E-5,0E0,0E0,7.338248E-6,0E0,0E0,0E0],"parents":[2147483647,0,0,1,1,2,2,5,5],"right_children":[2,4,6,-1,-1,8,-1,-1,-1],"split_conditions":[2E-1,2E0,5.71E-1,-1.074326E-4,-4.559517E-4,4E0,4.516423E-4,6.12425E-5,-1.4539063E-4],"split_indices":[3,17,3,0,0,12,0,0,0],"split_type":[0,0,0,0,0,0,0,0,0],"sum_hessian":[2E1,5E0,1.5E1,4E0,1E0,1.4E1,1E0,1.3E1,1E0],"tree_param":{"num_deleted":"0","num_feature":"48","num_nodes":"9","size_leaf_vector":"1"}},{"base_weights":[-4.0729842E-7,-5.561976E-4,3.5197337E-3,-4.331544E-4,-1.05814805E-4,9.890199E-5,4.2905807E-4,-4.2517582E-5,1.1182427E-4],"categories":[],"categories_nodes":[],"categories_segments":[],"categories_sizes":[],"default_left":[0,0,0,0,0,0,0,0,0],"id":84,"left_children":[1,3,5,-1,7,-1,-1,-1,-1],"loss_changes":[4.3043332E-5,3.184833E-5,1.608907E-6,0E0,7.511943E-6,0E0,0E0,0E0,0E0],"parents":[2147483647,0,0,1,1,2,2,4,4],"right_children":[2,4,6,-1,8,-1,-1,-1,-1],"split_conditions":[5.56E-1,3.333E1,4E0,-4.331544E-4,3E0,9.890199E-5,4.2905807E-4,-4.2517582E-5,1.1182427E-4],"split_indices":[3,24,0,0,35,0,0,0,0],"split_type":[0,0,0,0,0,0,0,0,0],"sum_hessian":[2E1,1.8E1,2E0,1E0,1.7E1,1E0,1E0,1.4E1,3E0],"tree_param":{"num_deleted":"0","num_feature":"48","num_nodes":"9","size_leaf_vector":"1"}},{"base_weights":[7.4463233E-6,-2.1669716E-3,8.2238764E-4,-9.543777E-5,-4.1149705E-4,3.3373834E-4,4.0760636E-4,1.3138533E-4,-1.4210832E-5],"categories":[],"categories_nodes":[],"categories_segments":[],"categories_sizes":[],"default_left":[0,0,0,0,0,0,0,0,0],"id":85,"left_children":[1,3,5,-1,-1,7,-1,-1,-1],"loss_changes":[3.899457E-5,1.0245554E-5,2.4078166E-5,0E0,0E0,7.182475E-6,0E0,0E0,0E0],"parents":[2147483647,0,0,1,1,2,2,5,5],"right_children":[2,4,6,-1,-1,8,-1,-1,-1],"split_conditions":[2E-1,2E0,5.71E-1,-9.543777E-5,-4.1149705E-4,1.1E1,4.0760636E-4,1.3138533E-4,-1.4210832E-5],"split_indices":[3,17,3,0,0,1,0,0,0],"split_type":[0,0,0,0,0,0,0,0,0],"sum_hessian":[2E1,5E0,1.5E1,4E0,1E0,1.4E1,1E0,4E0,1E1],"tree_param":{"num_deleted":"0","num_feature":"48","num_nodes":"9","size_leaf_vector":"1"}},{"base_weights":[7.542826E-6,6.9614366E-4,-2.3352087E-3,2.5561824E-4,3.8722754E-4,-3.8395327E-5,-3.5080613E-4,1.6123852E-4,-5.337596E-6],"categories":[],"categories_nodes":[],"categories_segments":[],"categories_sizes":[],"default_left":[0,0,0,0,0,0,0,0,0],"id":86,"left_children":[1,3,5,7,-1,-1,-1,-1,-1],"loss_changes":[3.5503275E-5,2.2796012E-5,1.0095744E-5,6.793792E-6,0E0,0E0,0E0,0E0,0E0],"parents":[2147483647,0,0,1,1,2,2,3,3],"right_children":[2,4,6,8,-1,-1,-1,-1,-1],"split_conditions":[5.556E1,5.71E-1,9E0,2E0,3.8722754E-4,-3.8395327E-5,-3.5080613E-4,1.6123852E-4,-5.337596E-6],"split_indices":[31,3,2,11,0,0,0,0,0],"split_type":[0,0,0,0,0,0,0,0,0],"sum_hessian":[2E1,1.6E1,4E0,1.5E1,1E0,2E0,2E0,2E0,1.3E1],"tree_param":{"num_deleted":"0","num_feature":"48","num_nodes":"9","size_leaf_vector":"1"}},{"base_weights":[1.4129139E-5,-1.9672315E-3,7.562563E-4,-5.4048003E-5,-3.2138228E-4,3.1618276E-4,3.6786796E-4,-2.4475656E-5,9.9222154E-5],"categories":[],"categories_nodes":[],"categories_segments":[],"categories_sizes":[],"default_left":[0,0,0,0,0,0,0,0,0],"id":87,"left_children":[1,3,5,-1,-1,7,-1,-1,-1],"loss_changes":[3.236658E-5,8.93445E-6,1.9414161E-5,0E0,0E0,5.9311033E-6,0E0,0E0,0E0],"parents":[2147483647,0,0,1,1,2,2,5,5],"right_children":[2,4,6,-1,-1,8,-1,-1,-1],"split_conditions":[2E-1,2E0,5.71E-1,-5.4048003E-5,-3.2138228E-4,2.222E1,3.6786796E-4,-2.4475656E-5,9.9222154E-5],"split_indices":[3,9,3,0,0,43,0,0,0],"split_type":[0,0,0,0,0,0,0,0,0],"sum_hessian":[2E1,5E0,1.5E1,3E0,2E0,1.4E1,1E0,8E0,6E0],"tree_param":{"num_deleted":"0","num_feature":"48","num_nodes":"9","size_leaf_vector":"1"}},{"base_weights":[1.5911603E-5,6.357256E-4,-2.0946383E-3,2.3861602E-4,3.4947396E-4,-3.3217668E-5,-3.1588873E-4,1.4799436E-4,-4.4426747E-6],"categories":[],"categories_nodes":[],"categories_segments":[],"categories_sizes":[],"default_left":[0,0,0,0,0,0,0,0,0],"id":88,"left_children":[1,3,5,7,-1,-1,-1,-1,-1],"loss_changes":[2.8802731E-5,1.846691E-5,8.32918E-6,5.6873296E-6,0E0,0E0,0E0,0E0,0E0],"parents":[2147483647,0,0,1,1,2,2,3,3],"right_children":[2,4,6,8,-1,-1,-1,-1,-1],"split_conditions":[5.556E1,5.71E-1,9E0,2E0,3.4947396E-4,-3.3217668E-5,-3.1588873E-4,1.4799436E-4,-4.4426747E-6],"split_indices":[31,3,2,11,0,0,0,0,0],"split_type":[0,0,0,0,0,0,0,0,0],"sum_hessian":[2E1,1.6E1,4E0,1.5E1,1E0,2E0,2E0,2E0,1.3E1],"tree_param":{"num_deleted":"0","num_feature":"48","num_nodes":"9","size_leaf_vector":"1"}},{"base_weights":[2.117526E-5,-1.7726669E-3,6.9254264E-4,-7.6112745E-5,-3.4151823E-4,2.9604833E-4,3.3199787E-4,1.12288006E-4,-1.06697735E-5],"categories":[],"categories_nodes":[],"categories_segments":[],"categories_sizes":[],"default_left":[0,0,0,0,0,0,0,0,0],"id":89,"left_children":[1,3,5,-1,-1,7,-1,-1,-1],"loss_changes":[2.6518517E-5,7.3694264E-6,1.5685342E-5,0E0,0E0,5.1148563E-6,0E0,0E0,0E0],"parents":[2147483647,0,0,1,1,2,2,5,5],"right_children":[2,4,6,-1,-1,8,-1,-1,-1],"split_conditions":[2E-1,2E0,5.71E-1,-7.6112745E-5,-3.4151823E-4,1.1E1,3.3199787E-4,1.12288006E-4,-1.06697735E-5],"split_indices":[3,17,3,0,0,1,0,0,0],"split_type":[0,0,0,0,0,0,0,0,0],"sum_hessian":[2E1,5E0,1.5E1,4E0,1E0,1.4E1,1E0,4E0,1E1],"tree_param":{"num_deleted":"0","num_feature":"48","num_nodes":"9","size_leaf_vector":"1"}},{"base_weights":[1.9831317E-5,-5.4769305E-4,1.9454479E-3,-3.2444298E-4,-1.7637014E-4,-3.733039E-5,2.618462E-4,6.275092E-5,-7.214487E-5],"categories":[],"categories_nodes":[],"categories_segments":[],"categories_sizes":[],"default_left":[0,0,0,0,0,0,0,0,0],"id":90,"left_children":[1,3,5,-1,7,-1,-1,-1,-1],"loss_changes":[2.4015031E-5,1.6450902E-5,8.780242E-6,0E0,7.4635536E-6,0E0,0E0,0E0,0E0],"parents":[2147483647,0,0,1,1,2,2,4,4],"right_children":[2,4,6,-1,8,-1,-1,-1,-1],"split_conditions":[1E0,3.333E1,4.55E-1,-3.2444298E-4,3.7E1,-3.733039E-5,2.618462E-4,6.275092E-5,-7.214487E-5],"split_indices":[7,24,3,0,38,0,0,0,0],"split_type":[0,0,0,0,0,0,0,0,0],"sum_hessian":[2E1,1.6E1,4E0,1E0,1.5E1,1E0,3E0,6E0,9E0],"tree_param":{"num_deleted":"0","num_feature":"48","num_nodes":"9","size_leaf_vector":"1"}},{"base_weights":[1.262767E-5,-3.8065095E-4,2.499183E-4,-3.0822158E-4,-5.9329803E-5,-2.9910729E-5,1.2392602E-4],"categories":[],"categories_nodes":[],"categories_segments":[],"categories_sizes":[],"default_left":[1,0,0,0,0,0,0],"id":91,"left_children":[1,3,-1,-1,5,-1,-1],"loss_changes":[2.1487405E-5,1.6310461E-5,0E0,0E0,5.975379E-6,0E0,0E0],"parents":[2147483647,0,0,1,1,4,4],"right_children":[2,4,-1,-1,6,-1,-1],"split_conditions":[6.15E-1,3.333E1,2.499183E-4,-3.0822158E-4,1E1,-2.9910729E-5,1.2392602E-4],"split_indices":[32,24,0,0,25,0,0],"split_type":[0,0,0,0,0,0,0],"sum_hessian":[2E1,1.8E1,2E0,1E0,1.7E1,1.5E1,2E0],"tree_param":{"num_deleted":"0","num_feature":"48","num_nodes":"7","size_leaf_vector":"1"}},{"base_weights":[1.3073285E-5,-1.5140077E-3,5.8491156E-4,-3.8950147E-5,-2.50868E-4,2.3749271E-4,2.8980972E-4,-2.1845764E-5,7.897871E-5],"categories":[],"categories_nodes":[],"categories_segments":[],"categories_sizes":[],"default_left":[0,0,0,0,0,0,0,0,0],"id":92,"left_children":[1,3,5,-1,-1,7,-1,-1,-1],"loss_changes":[1.922367E-5,5.7339576E-6,1.2170029E-5,0E0,0E0,3.9498173E-6,0E0,0E0,0E0],"parents":[2147483647,0,0,1,1,2,2,5,5],"right_children":[2,4,6,-1,-1,8,-1,-1,-1],"split_conditions":[2E-1,2E0,5.71E-1,-3.8950147E-5,-2.50868E-4,2.222E1,2.8980972E-4,-2.1845764E-5,7.897871E-5],"split_indices":[3,9,3,0,0,43,0,0,0],"split_type":[0,0,0,0,0,0,0,0,0],"sum_hessian":[2E1,5E0,1.5E1,3E0,2E0,1.4E1,1E0,8E0,6E0],"tree_param":{"num_deleted":"0","num_feature":"48","num_nodes":"9","size_leaf_vector":"1"}},{"base_weights":[1.4476833E-5,5.0015486E-4,-1.6397238E-3,1.8726476E-4,2.7531982E-4,-2.3778279E-5,-2.4950903E-4,5.2585117E-5,-4.6468773E-5],"categories":[],"categories_nodes":[],"categories_segments":[],"categories_sizes":[],"default_left":[0,0,0,0,0,0,0,0,0],"id":93,"left_children":[1,3,5,7,-1,-1,-1,-1,-1],"loss_changes":[1.76917E-5,1.1468655E-5,5.4025777E-6,3.7762327E-6,0E0,0E0,0E0,0E0,0E0],"parents":[2147483647,0,0,1,1,2,2,3,3],"right_children":[2,4,6,8,-1,-1,-1,-1,-1],"split_conditions":[5.556E1,5.71E-1,9E0,1E0,2.7531982E-4,-2.3778279E-5,-2.4950903E-4,5.2585117E-5,-4.6468773E-5],"split_indices":[31,3,2,18,0,0,0,0,0],"split_type":[0,0,0,0,0,0,0,0,0],"sum_hessian":[2E1,1.6E1,4E0,1.5E1,1E0,2E0,2E0,1E1,5E0],"tree_param":{"num_deleted":"0","num_feature":"48","num_nodes":"9","size_leaf_vector":"1"}},{"base_weights":[1.3425237E-5,-2.6779177E-4,2.8188823E-4,-4.2451753E-5,2.1339655E-4,-2.5447458E-5,1.1024872E-4],"categories":[],"categories_nodes":[],"categories_segments":[],"categories_sizes":[],"default_left":[0,0,1,0,0,0,0],"id":94,"left_children":[1,-1,3,5,-1,-1,-1],"loss_changes":[1.5927919E-5,0E0,1.2104645E-5,4.6501123E-6,0E0,0E0,0E0],"parents":[2147483647,0,0,2,2,3,3],"right_children":[2,-1,4,6,-1,-1,-1],"split_conditions":[3.333E1,-2.6779177E-4,6.15E-1,1E1,2.1339655E-4,-2.5447458E-5,1.1024872E-4],"split_indices":[24,0,32,25,0,0,0],"split_type":[0,0,0,0,0,0,0],"sum_hessian":[2E1,1E0,1.9E1,1.7E1,2E0,1.5E1,2E0],"tree_param":{"num_deleted":"0","num_feature":"48","num_nodes":"7","size_leaf_vector":"1"}},{"base_weights":[1.352174E-5,-3.0892773E-4,2.0511945E-4,-2.5440156E-4,-4.3421984E-5,3.139178E-5,-6.498014E-5],"categories":[],"categories_nodes":[],"categories_segments":[],"categories_sizes":[],"default_left":[0,0,0,0,0,0,0],"id":95,"left_children":[1,3,-1,-1,5,-1,-1],"loss_changes":[1.4431647E-5,1.116468E-5,0E0,0E0,4.1042867E-6,0E0,0E0],"parents":[2147483647,0,0,1,1,4,4],"right_children":[2,4,-1,-1,6,-1,-1],"split_conditions":[7E0,3.333E1,2.0511945E-4,-2.5440156E-4,9E0,3.139178E-5,-6.498014E-5],"split_indices":[10,24,0,0,34,0,0],"split_type":[0,0,0,0,0,0,0],"sum_hessian":[2E1,1.8E1,2E0,1E0,1.7E1,1.1E1,6E0],"tree_param":{"num_deleted":"0","num_feature":"48","num_nodes":"7","size_leaf_vector":"1"}},{"base_weights":[8.219764E-6,-5.7889736E-4,1.0346472E-3,3.3543367E-4,-1.3065748E-3,2.2817057E-4,2.3867686E-4,-1.8317105E-5,1.0879636E-4,-3.643036E-5,-1.7990769E-4,5.77271E-5,-2.923409E-5],"categories":[],"categories_nodes":[],"categories_segments":[],"categories_sizes":[],"default_left":[0,0,0,0,0,0,0,0,0,0,0,0,0],"id":96,"left_children":[1,3,5,7,9,-1,11,-1,-1,-1,-1,-1,-1],"loss_changes":[1.325425E-5,9.753001E-6,7.3963793E-6,2.931142E-6,3.0571537E-6,0E0,1.2475568E-6,0E0,0E0,0E0,0E0,0E0,0E0],"parents":[2147483647,0,0,1,1,2,2,3,3,4,4,6,6],"right_children":[2,4,6,8,10,-1,12,-1,-1,-1,-1,-1,-1],"split_conditions":[5E0,3.7E0,5.417E1,3E0,2E0,2.2817057E-4,2E0,-1.8317105E-5,1.0879636E-4,-3.643036E-5,-1.7990769E-4,5.77271E-5,-2.923409E-5],"split_indices":[37,25,24,10,19,0,6,0,0,0,0,0,0],"split_type":[0,0,0,0,0,0,0,0,0,0,0,0,0],"sum_hessian":[2E1,1.3E1,7E0,6E0,7E0,2E0,5E0,4E0,2E0,3E0,4E0,3E0,2E0],"tree_param":{"num_deleted":"0","num_feature":"48","num_nodes":"13","size_leaf_vector":"1"}},{"base_weights":[1.3625338E-5,-2.326861E-4,2.469927E-4,1.871272E-5,2.2921563E-4,-1.40165575E-5,9.1278554E-5],"categories":[],"categories_nodes":[],"categories_segments":[],"categories_sizes":[],"default_left":[0,0,0,0,0,0,0],"id":97,"left_children":[1,-1,3,5,-1,-1,-1],"loss_changes":[1.2044774E-5,0E0,9.294505E-6,2.8268676E-6,0E0,0E0,0E0],"parents":[2147483647,0,0,2,2,3,3],"right_children":[2,-1,4,6,-1,-1,-1],"split_conditions":[3.333E1,-2.326861E-4,5.71E-1,1E1,2.2921563E-4,-1.40165575E-5,9.1278554E-5],"split_indices":[24,0,3,25,0,0,0],"split_type":[0,0,0,0,0,0,0],"sum_hessian":[2E1,1E0,1.9E1,1.8E1,1E0,1.6E1,2E0],"tree_param":{"num_deleted":"0","num_feature":"48","num_nodes":"7","size_leaf_vector":"1"}},{"base_weights":[1.577962E-5,-2.2105128E-4,2.3761988E-4,2.0911819E-5,2.1775365E-4,-2.6777885E-5,4.5133384E-5],"categories":[],"categories_nodes":[],"categories_segments":[],"categories_sizes":[],"default_left":[0,0,0,1,0,0,0],"id":98,"left_children":[1,-1,3,5,-1,-1,-1],"loss_changes":[1.0896769E-5,0E0,8.362375E-6,2.481775E-6,0E0,0E0,0E0],"parents":[2147483647,0,0,2,2,3,3],"right_children":[2,-1,4,6,-1,-1,-1],"split_conditions":[3.333E1,-2.2105128E-4,5.71E-1,3.333E1,2.1775365E-4,-2.6777885E-5,4.5133384E-5],"split_indices":[24,0,3,30,0,0,0],"split_type":[0,0,0,0,0,0,0],"sum_hessian":[2E1,1E0,1.9E1,1.8E1,1E0,1.1E1,7E0],"tree_param":{"num_deleted":"0","num_feature":"48","num_nodes":"7","size_leaf_vector":"1"}},{"base_weights":[1.4916772E-5,-2.0999908E-4,2.256617E-4,1.9787174E-5,2.0686389E-4,-1.2714197E-5,8.457899E-5],"categories":[],"categories_nodes":[],"categories_segments":[],"categories_sizes":[],"default_left":[0,0,0,0,0,0,0],"id":99,"left_children":[1,-1,3,5,-1,-1,-1],"loss_changes":[9.833714E-6,0E0,7.547508E-6,2.4134488E-6,0E0,0E0,0E0],"parents":[2147483647,0,0,2,2,3,3],"right_children":[2,-1,4,6,-1,-1,-1],"split_conditions":[3.333E1,-2.0999908E-4,5.71E-1,1E1,2.0686389E-4,-1.2714197E-5,8.457899E-5],"split_indices":[24,0,3,25,0,0,0],"split_type":[0,0,0,0,0,0,0],"sum_hessian":[2E1,1E0,1.9E1,1.8E1,1E0,1.6E1,2E0],"tree_param":{"num_deleted":"0","num_feature":"48","num_nodes":"7","size_leaf_vector":"1"}}]},"name":"gbtree"},"learner_model_param":{"base_score":"8.8125E-1","boost_from_average":"1","num_class":"0","num_feature":"48","num_target":"1"},"objective":{"name":"reg:squarederror","reg_loss_param":{"scale_pos_weight":"1"}}},"version":[2,1,2]}